
//<![CDATA[

// a few things don't have var in front of them - they update already existing variables the game needs
lanesSide = 2;
patchesAhead = 2;
patchesBehind = 0;
trainIterations = 20000;

var num_inputs = (lanesSide * 2 + 1) * (patchesAhead + patchesBehind);
var num_actions = 5;
var temporal_window = 3;
var network_size = num_inputs * temporal_window + num_actions * temporal_window + num_inputs;

var layer_defs = [];
layer_defs.push({
    type: 'input',
    out_sx: 1,
    out_sy: 1,
    out_depth: network_size
});
layer_defs.push({
    type: 'fc',
    num_neurons: 50,
    activation: 'relu'
});

layer_defs.push({
    type: 'fc',
    num_neurons: 50,
    activation: 'relu'
});

layer_defs.push({
    type: 'regression',
    num_neurons: num_actions
});

var tdtrainer_options = {
    learning_rate: 0.001,
    momentum: 0.0,
    batch_size: 64,
    l2_decay: 0.01
};

var opt = {};
opt.temporal_window = temporal_window;
opt.experience_size = 3000;
opt.start_learn_threshold = 500;
opt.gamma = 0.7;
opt.learning_steps_total = 10000;
opt.learning_steps_burnin = 1000;
opt.epsilon_min = 0.0;
opt.epsilon_test_time = 0.0;
opt.layer_defs = layer_defs;
opt.tdtrainer_options = tdtrainer_options;

brain = new deepqlearn.Brain(num_inputs, num_actions, opt);

learn = function (state, lastReward) {
    brain.backward(lastReward);
    var action = brain.forward(state);

    draw_net();
    draw_stats();

    return action;
}

//]]>
    
/*###########*/
if (brain) {
brain.value_net.fromJSON({"layers":[{"out_depth":55,"out_sx":1,"out_sy":1,"layer_type":"input"},{"out_depth":50,"out_sx":1,"out_sy":1,"layer_type":"fc","num_inputs":55,"l1_decay_mul":0,"l2_decay_mul":1,"filters":[{"sx":1,"sy":1,"depth":55,"w":{"0":-0.03035334867557221,"1":-0.057754127651527744,"2":-0.038606123840019504,"3":-0.02046798818012354,"4":0.08872028158209729,"5":-0.006986914250679854,"6":0.1128937034060188,"7":-0.1263671320622758,"8":-0.12133942513820774,"9":-0.1408761807485251,"10":-0.14753333751604755,"11":0.2794083544507909,"12":-0.07439900327011535,"13":0.029313371895978067,"14":0.18516810248687698,"15":0.01930856453066685,"16":-0.06033226497143822,"17":0.06998663701904213,"18":-0.19461729446314888,"19":0.14906476188002815,"20":-0.15351551139580663,"21":-0.15244219312814117,"22":0.27359646300073437,"23":0.1725655566972204,"24":-0.18613675131136923,"25":0.14295862013823,"26":-0.1474609038978904,"27":0.05332321480403711,"28":-0.204435219144371,"29":0.10100104166766244,"30":-0.036688303304614235,"31":-0.05407423027241884,"32":-0.05552718439304769,"33":-0.20029716264402725,"34":-0.3161421526112343,"35":-0.04329426427495473,"36":-0.07900961735738574,"37":-0.1889689883394222,"38":0.0609693764463465,"39":0.06662918410924047,"40":0.061572934155978545,"41":0.0037934436537452407,"42":-0.06865362825550587,"43":0.110550686320226,"44":-0.0012092678912756453,"45":-0.04840911459912073,"46":0.23066223919131687,"47":0.024751847973543826,"48":-0.03724965176639344,"49":0.04626136860772317,"50":0.15964374952329807,"51":-0.0421263058759503,"52":0.3238013615127454,"53":0.05254511191226328,"54":0.06374068159044852}},{"sx":1,"sy":1,"depth":55,"w":{"0":0.19503634191857433,"1":0.1644530750464637,"2":-0.058985459106269116,"3":0.2600535032754911,"4":-0.19084414411394826,"5":0.21257756744298012,"6":0.04519932183941848,"7":-0.16060795052122295,"8":-0.1233558304580363,"9":-0.06209456082181525,"10":-0.04978759600112662,"11":0.03890605644854412,"12":0.14602320267934235,"13":0.09511396813844634,"14":0.21242564990834922,"15":0.13213651658634135,"16":0.13094020492233532,"17":0.1739327705699313,"18":0.009694363430502631,"19":-0.011072751766282887,"20":0.009169143761700095,"21":0.34322023835515963,"22":-0.07354742538927267,"23":-0.0032569740980441225,"24":-0.01884894820060303,"25":-0.1645114595161934,"26":-0.12799564791678147,"27":0.04686488679841642,"28":0.06441235619878627,"29":-0.15372332627045485,"30":-0.04614532877629865,"31":0.16367463051443396,"32":-0.15534949072365348,"33":0.06530955299569313,"34":0.05078674027761252,"35":0.10715652833638077,"36":-0.01250495201373837,"37":0.03777556297846436,"38":-0.09758955365620826,"39":0.10231932299507045,"40":-0.052689542330052117,"41":0.03974933434287796,"42":0.06017155526473308,"43":0.14171954453025198,"44":0.09465858909759203,"45":-0.13016301513751188,"46":-0.10712796815151895,"47":-0.25485020300579825,"48":0.19173373230262022,"49":0.26188684898919007,"50":-0.03415877412353704,"51":0.02715847847603145,"52":-0.11292209982946312,"53":-0.021329959615881668,"54":0.11241369073624902}},{"sx":1,"sy":1,"depth":55,"w":{"0":0.24444175718552455,"1":0.019397009439489483,"2":-0.04382880114015526,"3":-0.009431175418594251,"4":-0.14465915700150914,"5":-0.07379605858221815,"6":0.26890058163694885,"7":-0.047913022631062605,"8":0.04226778993346,"9":0.11814867698931374,"10":-0.020547948790942627,"11":-0.014997134362396046,"12":-0.05406074695903103,"13":0.1331253288419988,"14":0.02763688911791423,"15":0.056383290970984566,"16":-0.15143443798540615,"17":-0.060661770276811605,"18":-0.030033187484754108,"19":0.0607905080380553,"20":0.050515414010638526,"21":-0.15995486481164492,"22":-0.1036186626564133,"23":-0.03714684499394602,"24":0.19169196580093212,"25":0.03136521585796291,"26":0.13982133371735225,"27":0.06746920046554862,"28":0.004394238886310284,"29":-0.06187624772067927,"30":0.13816143425927152,"31":0.22084571715565798,"32":-0.014665976639305217,"33":-0.0843612368792237,"34":-0.09698947910649411,"35":0.2217709134200794,"36":-0.1677302714596343,"37":-0.18440569747733826,"38":-0.10247519134405236,"39":-0.06206988487823217,"40":0.052114810776205826,"41":0.04438072521126362,"42":0.3768544183187994,"43":0.13847888169110367,"44":-0.10623475763407847,"45":-0.23048442085824578,"46":-0.021385342495079257,"47":-0.13149874847699805,"48":-0.10031559379489767,"49":0.03468881792311208,"50":-0.08566801872748407,"51":-0.02056628035622475,"52":0.030721485919252674,"53":-0.007097579087690809,"54":-0.0025730303115534038}},{"sx":1,"sy":1,"depth":55,"w":{"0":0.20827422173312413,"1":-0.0505700528776983,"2":-0.0039995151092440265,"3":-0.06418332676512163,"4":-0.030018946015117204,"5":-0.17242544201514726,"6":-0.1212708669311238,"7":-0.12409417639103756,"8":-0.1286432501114908,"9":0.30686486752381276,"10":-0.2818710108633029,"11":-0.0077899461036321765,"12":0.08540995727102355,"13":-0.1621836949906984,"14":-0.05083241112555215,"15":0.09274289652587965,"16":0.07464468376000764,"17":0.15607870468008614,"18":0.14163009959256126,"19":0.06192698923697868,"20":-0.26336454933789955,"21":-0.03653931520877213,"22":-0.20296999148157893,"23":-0.02273080942439776,"24":0.020876592039079926,"25":-0.21189962772205967,"26":0.019802567861043643,"27":-0.10413045946611929,"28":0.20859523878738714,"29":-0.000024328344132010514,"30":0.13847729356976857,"31":0.04204320533338551,"32":-0.07200277626149013,"33":0.16923973221890626,"34":0.14292948571902162,"35":0.19033855390960597,"36":-0.33594291746538213,"37":-0.11366157373823482,"38":0.03052660812637026,"39":-0.05516497088465837,"40":0.01699428875138401,"41":0.22109329033890152,"42":-0.24919721804119263,"43":0.06455139215097057,"44":-0.17012530284590732,"45":0.13568214135752923,"46":0.09911888222889122,"47":0.1685783622728586,"48":-0.07816146269745802,"49":-0.041062168472802994,"50":0.08480164257241027,"51":-0.18461315561931826,"52":0.19975545146840423,"53":0.06258542412726988,"54":0.0539210685367834}},{"sx":1,"sy":1,"depth":55,"w":{"0":0.271230415572933,"1":0.09492325681135691,"2":0.01818337898608428,"3":0.03742924646550935,"4":0.03126730172975375,"5":0.021600744658167654,"6":-0.022041570131911308,"7":-0.01735469586460478,"8":0.25836155630866287,"9":0.14310315326602488,"10":-0.0719784105362087,"11":-0.04326843444944569,"12":0.01197469461826719,"13":0.2827891753649841,"14":0.07162431751426541,"15":-0.13623655285132694,"16":0.3379702936293056,"17":-0.05646104321276965,"18":0.3151311166910296,"19":0.09831926243555794,"20":-0.006403292799766815,"21":-0.25390914009558224,"22":-0.04709872177877108,"23":0.04985732888916334,"24":-0.01589109881032183,"25":0.04254632149618343,"26":-0.033135914939610114,"27":0.08924545927504789,"28":0.24399858438336422,"29":-0.0854144818535324,"30":-0.08712141469402797,"31":0.10879878595315959,"32":-0.08957149414371579,"33":-0.07019305085762445,"34":-0.23757552833433435,"35":0.0020422240063749887,"36":0.13211227957242702,"37":0.07036316584420681,"38":0.32816633256410194,"39":0.010515114613477069,"40":-0.13027648531776492,"41":0.12077866009268365,"42":-0.1406123632888313,"43":0.16281712194349648,"44":0.08960629619308538,"45":0.05597568634660113,"46":0.06724703608092436,"47":0.020880613342751642,"48":0.025310927435259624,"49":-0.01687230779404155,"50":-0.09025707632248438,"51":-0.1006802775445217,"52":-0.10595407797027132,"53":-0.07219279171654742,"54":-0.07878269564479046}},{"sx":1,"sy":1,"depth":55,"w":{"0":0.24287301090411456,"1":0.1845376797286134,"2":-0.012545839724632305,"3":0.3083756392601952,"4":0.04664443862839918,"5":0.12403297020687654,"6":0.23270963740012143,"7":0.1253954749618454,"8":0.1366399709845779,"9":-0.07666109913635724,"10":-0.08117844822252247,"11":0.20812658875006637,"12":0.19048144820662244,"13":0.2665323727996828,"14":-0.08792777793919894,"15":0.10191422138590057,"16":0.28714998511321327,"17":-0.08414853025322791,"18":0.21205029194501473,"19":-0.10093078702670277,"20":0.017717507794114167,"21":0.117763428931436,"22":-0.08692175941749487,"23":0.14987365814369172,"24":0.00024725426163840205,"25":-0.06999659027672853,"26":0.04365660470101972,"27":0.04206934492527646,"28":0.03255114163587106,"29":0.005473712883468251,"30":0.15672791602213998,"31":0.017597518190940388,"32":0.11050688262543859,"33":0.05113183970110393,"34":-0.065768186520869,"35":-0.11854205449111732,"36":-0.16279880100168817,"37":-0.05832266174060685,"38":0.041079857983662225,"39":0.2500526241778854,"40":0.15090939175301438,"41":0.028997803138589007,"42":0.029941344092588355,"43":0.0724301549754673,"44":0.12107382950575257,"45":0.030918443608143057,"46":0.1606846496172522,"47":-0.15012813900797436,"48":0.006004672737771279,"49":0.07679617508448032,"50":-0.04944445268158597,"51":0.027457640918563467,"52":-0.09080461317255142,"53":-0.04531889922634134,"54":0.10054962131339527}},{"sx":1,"sy":1,"depth":55,"w":{"0":-0.038755321689774,"1":-0.07448194827729075,"2":0.06622364714559276,"3":0.12047222579739827,"4":0.00215997550463581,"5":-0.11821723478797597,"6":-0.1270388032081273,"7":0.17686000824876005,"8":-0.03436827996174763,"9":-0.09735697948637417,"10":0.1517222019284137,"11":0.1979472065848717,"12":0.10020594430892309,"13":-0.01675766199348977,"14":0.07962017932073165,"15":-0.24257749513074794,"16":-0.021028709534534704,"17":-0.08347769956945056,"18":0.09132819640574286,"19":-0.011867829243851673,"20":-0.05137284384885612,"21":0.1722167094615503,"22":0.05366547854106292,"23":0.09882028535384033,"24":0.030623242277057806,"25":-0.08818671844136823,"26":-0.09366082978801928,"27":0.16745313486242108,"28":0.21153225499372713,"29":0.22781057647585082,"30":0.007953806024016234,"31":0.04246930499672306,"32":0.1425016854218323,"33":0.32464818171721144,"34":0.09801545280952108,"35":0.1230407345595006,"36":-0.2973135009273726,"37":0.022095649014134588,"38":0.03957182718765707,"39":0.13933499133125588,"40":-0.1351379102975082,"41":0.11887080389750122,"42":0.012254599083189011,"43":0.104043128348256,"44":0.057847510535682954,"45":-0.19108827723397442,"46":0.07045304419618602,"47":-0.00794527710141331,"48":0.1196093456059048,"49":-0.19071095060109455,"50":0.22721750193080378,"51":0.0073018954601616485,"52":-0.07246756489040414,"53":0.015984447080856626,"54":0.12232391723598857}},{"sx":1,"sy":1,"depth":55,"w":{"0":-0.016042042908257934,"1":0.47078221341354776,"2":-0.13068330791505073,"3":0.25268258545390265,"4":0.21193032131196474,"5":0.01766708747492184,"6":0.1087587429938659,"7":-0.2352081930502476,"8":0.43032745767501007,"9":0.03955580307241829,"10":0.2852541060640535,"11":0.3069497574712906,"12":-0.006397997016717022,"13":0.21634752933488732,"14":-0.0011023523755719687,"15":-0.14050413150243893,"16":-0.007483501995370718,"17":-0.0964275758746684,"18":0.15609391230074118,"19":0.09067949005249844,"20":0.09428208816370347,"21":-0.11561579787144782,"22":0.08221537750455207,"23":-0.07997165115769334,"24":-0.02967092167249931,"25":-0.07181732576310598,"26":0.1497862077755196,"27":0.1065794437138545,"28":0.20572780710151753,"29":0.08820772620281361,"30":0.1328411874804895,"31":0.15059008040826935,"32":0.09003043882963817,"33":0.32208610583331243,"34":-0.17908882573245083,"35":0.08402941973604669,"36":0.1950762751960162,"37":0.004816182214413382,"38":0.24317335081835006,"39":0.19843167415229193,"40":-0.021955615299663042,"41":-0.05190576642792779,"42":0.06878882792143805,"43":0.18876819428902356,"44":0.13912518707948032,"45":-0.03386568947040554,"46":0.0413921581262631,"47":-0.02502431897650427,"48":-0.11788394270708477,"49":-0.1967511943845994,"50":-0.02592829960167991,"51":0.12513945953504335,"52":-0.05154272945377523,"53":0.0850522057053906,"54":-0.21701103740967584}},{"sx":1,"sy":1,"depth":55,"w":{"0":-0.04140313484047294,"1":-0.06620959020594994,"2":0.10151083713721024,"3":-0.13687323481997915,"4":0.08879161170413608,"5":-0.23810514993580192,"6":0.14772998389036282,"7":0.03673995144313918,"8":0.17699900035399066,"9":-0.035739962489805946,"10":0.0029539487913167574,"11":0.20952103117233448,"12":0.0019107142654445337,"13":0.20606516042372225,"14":0.06796637582486935,"15":0.09192931633663064,"16":0.04575959162496194,"17":0.1002713146993512,"18":0.09182225155863323,"19":0.3729430073827835,"20":-0.0885559642017196,"21":-0.00934515656826905,"22":-0.23737682761936396,"23":0.2843144390203807,"24":0.10556203660389417,"25":-0.011631777896022317,"26":0.028496116544629604,"27":0.05661506744932008,"28":0.14347185516767205,"29":-0.023215158397724037,"30":0.022099718936574447,"31":-0.017537836825267803,"32":0.12221775130085107,"33":-0.02096303644503434,"34":0.04316035924229205,"35":-0.1034380614074076,"36":0.08562236065937912,"37":0.13528058647050473,"38":-0.1781902586289547,"39":-0.07408384185791053,"40":0.23246525400759793,"41":-0.015108119292045927,"42":0.032362419065074984,"43":0.02072273451138956,"44":0.09155871383370727,"45":0.028667850334593695,"46":0.06543432080405162,"47":0.07853066650086153,"48":-0.0815186938948603,"49":-0.01586539916910919,"50":-0.10363632998435955,"51":-0.2853086572209052,"52":-0.017524063823496402,"53":-0.036604927352615224,"54":0.18818211214116462}},{"sx":1,"sy":1,"depth":55,"w":{"0":0.05333095717660723,"1":-0.016710492181597744,"2":-0.03383299123185295,"3":0.24994360589024994,"4":-0.013899695523930933,"5":-0.03586412589023062,"6":0.02425976028057073,"7":0.07582924282346924,"8":0.06974445611105443,"9":0.14615010232907097,"10":0.019519067087086058,"11":0.31401058557515293,"12":0.07872869919615468,"13":0.03397730483210319,"14":0.05434777910566459,"15":0.17456483139553677,"16":0.08741150352472954,"17":0.10881128506460455,"18":0.21737516208407634,"19":-0.024681226808459782,"20":0.11947438482381768,"21":0.021004000933446638,"22":-0.10016007980756948,"23":0.0332810445463967,"24":0.058410314175563686,"25":0.04723526078148544,"26":-0.17589525326069538,"27":-0.26359346167117453,"28":0.20212362247037108,"29":0.0131886206002859,"30":-0.0016019794597051415,"31":0.03464630424215811,"32":0.27018176201763555,"33":-0.10866693746653204,"34":0.04011457912807975,"35":0.05225491902067027,"36":-0.19755718380533674,"37":-0.05484812983058246,"38":-0.048547673854651564,"39":-0.062040288580050756,"40":-0.019178710473251676,"41":0.5519763439677199,"42":0.04627641286575515,"43":-0.19106509703767502,"44":0.10596198985731557,"45":-0.19635318953410041,"46":0.10609049161198045,"47":0.06786205876666487,"48":0.0013569946608847352,"49":-0.1385091903682158,"50":-0.005827486576198332,"51":-0.04389740217438611,"52":0.1941790070414471,"53":0.07531349029888396,"54":-0.02262831031003134}},{"sx":1,"sy":1,"depth":55,"w":{"0":0.12691253863078433,"1":-0.11541400569878511,"2":-0.0038475521451896036,"3":-0.12528282251462589,"4":-0.44908198241522146,"5":0.0798466322265833,"6":0.2016682534217193,"7":0.06664203329490155,"8":-0.04689884927436534,"9":-0.09488528770267855,"10":-0.07687820043756811,"11":0.08625058093577491,"12":-0.1538230368471127,"13":-0.2570968754253308,"14":0.07131558899109817,"15":-0.108776581088202,"16":-0.033897731589841336,"17":0.054291775997847916,"18":-0.013234693205214976,"19":0.14728458465259237,"20":0.009927680959380842,"21":0.10757304149328145,"22":0.10529672756947059,"23":-0.09826557407573205,"24":-0.18064226236128658,"25":0.19574526458507732,"26":0.04004729800272796,"27":-0.001774515474111834,"28":-0.005213858226862423,"29":0.004377688641701083,"30":-0.030536044895711923,"31":0.252358913303247,"32":-0.018859719841225184,"33":-0.046451519233649353,"34":-0.0720909608861357,"35":0.08370189809179038,"36":-0.16381390570187107,"37":0.20879281378806322,"38":0.34014015706602446,"39":0.13033678240212854,"40":0.004955895266569187,"41":0.08917359232740388,"42":0.23940440188144074,"43":-0.13599156840768603,"44":-0.012834487324182652,"45":-0.04807444388666452,"46":0.00854995315134743,"47":-0.25653036351044084,"48":0.20096191631812196,"49":0.06008917224755008,"50":0.1614630553471852,"51":0.06705379442710666,"52":0.07994101342497434,"53":-0.16399771406800825,"54":0.025844037196420762}},{"sx":1,"sy":1,"depth":55,"w":{"0":-0.18355157067494393,"1":-0.23226252429142763,"2":-0.19187113856958382,"3":0.2812177727881356,"4":-0.1491526360963731,"5":-0.17999952558854249,"6":0.0034292006257731706,"7":-0.03578732827529428,"8":0.16907927904114184,"9":0.3009928237449224,"10":-0.24925717019105167,"11":-0.16832661982936528,"12":0.019769277616277614,"13":-0.33113691860932654,"14":0.17130441957239953,"15":-0.09555857449771098,"16":-0.03954079755480331,"17":-0.08608904541618581,"18":-0.07324432127668327,"19":-0.04043578933312891,"20":-0.0782615047646882,"21":-0.12141426457018827,"22":-0.015109792773025417,"23":-0.07118049181780771,"24":0.1103757806160257,"25":0.05290320121383057,"26":0.045289407101905606,"27":-0.04318901793455113,"28":-0.021920529785013135,"29":-0.162130280328511,"30":-0.036178201564083724,"31":-0.16500544440557857,"32":0.02541639985695053,"33":0.29712176574325616,"34":0.11557847290034441,"35":-0.044399021244471926,"36":0.06534277924778542,"37":0.06209234659159392,"38":0.05155358028197737,"39":0.030667865967438396,"40":-0.10303694690097069,"41":-0.06887439456860671,"42":-0.1147906122052954,"43":0.10838900493037773,"44":-0.003522028166959165,"45":-0.12922323072277392,"46":-0.3118800753198207,"47":0.05458243768016407,"48":0.11156614633998523,"49":-0.10051602358089559,"50":-0.06268722105337086,"51":-0.002980589727907608,"52":-0.00490125268692695,"53":-0.10498105126817478,"54":0.002835321234812455}},{"sx":1,"sy":1,"depth":55,"w":{"0":-0.11374446032677789,"1":0.017012261382046433,"2":-0.09437758128880402,"3":0.1349425461326445,"4":-0.13083748027217293,"5":-0.06366073550429693,"6":0.02469987667017279,"7":-0.13109610792681295,"8":-0.028555067526980574,"9":0.37674523663219417,"10":-0.16470660923383038,"11":0.09857153044746217,"12":-0.07885275443225051,"13":-0.12332607483910724,"14":0.10154574454242515,"15":-0.019955401055544598,"16":0.1473082541224539,"17":-0.27918739838564,"18":-0.09988649210601502,"19":-0.2125117506252688,"20":-0.04436786605169045,"21":0.06311448965102646,"22":0.1898924824544834,"23":-0.06209108716128016,"24":-0.031006938454826435,"25":-0.116011769161475,"26":0.2887032779325119,"27":0.13007544385009528,"28":0.19185255445120364,"29":-0.051416517606754523,"30":0.00004512439589017669,"31":-0.07859738530120007,"32":0.12604061830503863,"33":-0.03462036695527699,"34":-0.03877616839255135,"35":0.0750046886902576,"36":0.0899978177688273,"37":0.16523428241878005,"38":0.035506385090357175,"39":-0.2897164606771027,"40":-0.05329067291592851,"41":0.041119499351153624,"42":0.22421747463262393,"43":-0.02353703261783548,"44":-0.19921530980846072,"45":-0.18796272789853544,"46":-0.1563448303552022,"47":-0.294985510144829,"48":-0.3496459485337935,"49":0.041379071581841696,"50":-0.04046281881878267,"51":-0.16339042258754596,"52":0.09642904839521171,"53":0.0734312191587307,"54":0.0680186343371036}},{"sx":1,"sy":1,"depth":55,"w":{"0":0.010453206196888894,"1":-0.15397609238445878,"2":-0.13100453889329985,"3":-0.07055447671633128,"4":-0.013532977195843624,"5":0.2964413849904824,"6":0.09964069747084654,"7":0.09376138641650436,"8":0.09389218572122518,"9":-0.02644834297567372,"10":0.09598259698172285,"11":-0.06398666398924185,"12":-0.14210504127423987,"13":-0.15311030146647597,"14":0.09652256305928132,"15":-0.09611392091597598,"16":0.03337107359894034,"17":0.20443870936213465,"18":-0.07844395891857657,"19":-0.10404431546144492,"20":0.04003814148586761,"21":-0.055312502851364506,"22":-0.16359365491283795,"23":-0.0075969784744221395,"24":0.08485371920382641,"25":-0.10254983163173792,"26":-0.19222827642802892,"27":0.02132699681133156,"28":0.09747253819202864,"29":-0.09799758542286134,"30":-0.16526995033611222,"31":0.07177250869403774,"32":0.1244263804794174,"33":-0.03239793637366311,"34":-0.04620722700123298,"35":0.022084781988083592,"36":-0.07112598045526392,"37":0.11840776422622931,"38":0.18479153670776,"39":-0.21749760540587118,"40":-0.012005140995445222,"41":0.08043378858891244,"42":0.2041822939079467,"43":0.13808946398718686,"44":-0.17390550752961548,"45":-0.13340771405179425,"46":-0.24922575532887137,"47":0.008741409896097412,"48":-0.15890063441121283,"49":0.056878583207121095,"50":0.14637440439067395,"51":-0.13831308735245298,"52":0.38937929607232225,"53":0.1179580664370661,"54":-0.004693523370943319}},{"sx":1,"sy":1,"depth":55,"w":{"0":0.05729906835441515,"1":-0.28044260590271985,"2":-0.0762476362316945,"3":-0.020317900613240444,"4":-0.08341562558510353,"5":-0.17201977962514362,"6":0.19864275681794694,"7":0.07386218132442944,"8":-0.03409706995547785,"9":-0.06808838718841732,"10":0.06003972735575842,"11":0.049636676190461644,"12":0.08872454240869061,"13":-0.025439751587810474,"14":0.00029297111147505434,"15":0.09172597587437767,"16":0.31109975389421785,"17":0.09605948447549723,"18":-0.09326927356029942,"19":-0.003399064732878588,"20":-0.03329971797780219,"21":0.12180565769906682,"22":-0.09400751394133719,"23":-0.12530726242478052,"24":-0.36758723592150133,"25":-0.3067346464818075,"26":-0.04342510682464609,"27":-0.045418571083332145,"28":-0.2687396262245685,"29":-0.20069593922213036,"30":0.1176910049312371,"31":-0.05965154966296761,"32":-0.055026847831048414,"33":0.01686453755611593,"34":-0.05600961012851229,"35":0.09699539084537334,"36":-0.03062047619668182,"37":0.0907407744396984,"38":-0.00900693561288088,"39":0.050527830869090254,"40":-0.19596824997152892,"41":0.005180046261035943,"42":0.2638277434250849,"43":0.0197752834206728,"44":0.035828344049376445,"45":-0.08149704012468897,"46":-0.18249608006365436,"47":0.27266025270399946,"48":-0.15335061244496606,"49":-0.05704523733477175,"50":-0.044799924081587665,"51":0.042894906951621,"52":0.03239155798960182,"53":0.03564180239242326,"54":0.014082105949161245}},{"sx":1,"sy":1,"depth":55,"w":{"0":-0.07050888167078002,"1":-0.2113535572923491,"2":-0.1189715851214846,"3":-0.08412229088688333,"4":-0.0529392067305198,"5":0.01687092963727227,"6":0.10112924826255816,"7":-0.2027964253266768,"8":-0.1267606990722244,"9":0.0750751055684822,"10":0.13440451454357635,"11":0.14102288473022723,"12":-0.05393449478233052,"13":0.12643963402033448,"14":-0.004028608156267896,"15":0.04547663622778864,"16":0.11314724542932748,"17":-0.052470927327933056,"18":-0.04835175417320928,"19":-0.08304043568097572,"20":-0.007700056288129138,"21":-0.07830954517758659,"22":0.005361152298799312,"23":-0.168145774054088,"24":-0.18443015259508513,"25":0.09017433927695798,"26":-0.14161036265071628,"27":-0.29479150004345467,"28":-0.03539800261081314,"29":-0.20299198857419903,"30":0.06310916043464353,"31":-0.10717817794969356,"32":-0.010960807921712556,"33":-0.057921346019293066,"34":-0.11864150954815433,"35":-0.06615822626283911,"36":0.07198218566677667,"37":-0.18561565858307238,"38":0.03617219024948711,"39":0.06363205143317881,"40":0.0736233679386928,"41":0.1925974281175369,"42":-0.17084366133347118,"43":-0.1506618786270155,"44":0.03180514583476674,"45":0.07604698026160212,"46":0.02843727875300408,"47":0.04771989987138244,"48":-0.06037811217429463,"49":-0.0185285134471293,"50":0.06533018441639354,"51":0.20361070023037015,"52":-0.13517508282236668,"53":0.12864901917503221,"54":0.06722503596293815}},{"sx":1,"sy":1,"depth":55,"w":{"0":-0.10052242215598328,"1":-0.10823549668855253,"2":-0.09430765172298419,"3":-0.11800626778806377,"4":0.11120691655599979,"5":-0.04825918173913171,"6":0.06107154206439181,"7":0.27901106494301203,"8":0.22537109218759435,"9":-0.027393828395695718,"10":-0.0336789914270155,"11":0.25460286935421794,"12":-0.2578340930402873,"13":-0.11199899375981875,"14":0.11379774905587767,"15":0.16820469150254605,"16":-0.33352877991041996,"17":-0.18394782456586703,"18":0.0749608081287206,"19":0.08458922857035221,"20":-0.021038751106438568,"21":0.2394780859502613,"22":-0.17928555739660043,"23":0.04894864469892559,"24":-0.13070122989824862,"25":-0.18125613229794596,"26":-0.09637203240815431,"27":0.015190451191231483,"28":-0.2857186770499799,"29":-0.1073380274894874,"30":-0.007325216640443017,"31":-0.053410075534604445,"32":0.059410845595199484,"33":-0.15026911882817898,"34":-0.1937541309395046,"35":0.15941659120478413,"36":-0.08179510027509194,"37":-0.025182260497645954,"38":-0.2343128272438603,"39":0.2057069354259637,"40":-0.13404782992249228,"41":-0.006394690434544464,"42":-0.10937183986674301,"43":0.1557237247673508,"44":-0.23971745710721867,"45":-0.027018076699228587,"46":0.18836964911274098,"47":-0.1262560131795254,"48":0.10877330422045646,"49":-0.31838634232631086,"50":0.14332293934292747,"51":-0.013035667055042659,"52":0.15728835439825872,"53":-0.18755498920072497,"54":-0.03621858839540546}},{"sx":1,"sy":1,"depth":55,"w":{"0":-0.10223005574986516,"1":-0.06527589024954791,"2":-0.17974954482750366,"3":0.12263640611319793,"4":-0.0024141125740770814,"5":0.18030346665918784,"6":0.2197779213151313,"7":0.0871384531505122,"8":-0.0029839420588665113,"9":-0.00959123485910836,"10":-0.10482490595452847,"11":-0.03144073821395465,"12":0.04428952775248702,"13":0.20513655569384678,"14":0.21822161811665686,"15":0.008586355085649448,"16":0.014528249139085533,"17":0.12495950930829534,"18":0.18805451860184882,"19":0.14675273746807704,"20":0.08449064613353374,"21":0.2647259637628844,"22":-0.04758993174388076,"23":-0.18074847593848675,"24":0.15497393256691283,"25":-0.10887556977929946,"26":-0.10394924245659067,"27":-0.1837967223915216,"28":0.005881989363668641,"29":0.15086980850994353,"30":0.12481972329583622,"31":0.20317605025244415,"32":-0.10890825112287583,"33":0.12524367082543475,"34":-0.022617029333400426,"35":0.09034489604882029,"36":-0.04710558641781923,"37":-0.044828759261794596,"38":0.017733997401963818,"39":-0.06052638815252159,"40":0.2756241946553603,"41":0.24606452578247168,"42":-0.10936005630108697,"43":0.001584687268278008,"44":-0.1304941657405171,"45":-0.11198276195307486,"46":-0.038779919156958505,"47":0.02644001523275284,"48":0.13567264094897502,"49":0.006748065058923777,"50":0.012978023380723135,"51":-0.02661159895466616,"52":0.07295296703598413,"53":0.03485669734718118,"54":0.042231489153128465}},{"sx":1,"sy":1,"depth":55,"w":{"0":0.10775468262441959,"1":0.02799586833523364,"2":0.1021707608098818,"3":0.004185322874379437,"4":-0.11072203639253889,"5":-0.20500815533077707,"6":0.08730662866557935,"7":-0.0305933109378698,"8":0.022130105429070655,"9":-0.10797080368802969,"10":0.05103186343612776,"11":-0.18089190866039248,"12":-0.2688257635648841,"13":-0.00604215861484452,"14":0.0276339202597236,"15":0.0563106615727459,"16":0.11233065342935884,"17":0.05919116699649065,"18":0.02361859922483784,"19":0.07785770971896677,"20":-0.017540020722746266,"21":-0.09590087699427702,"22":-0.10872524061854831,"23":-0.0046237751707189105,"24":0.3643634059210676,"25":-0.0749612205409304,"26":-0.25435892694999446,"27":0.13727689169702656,"28":-0.08276098539106434,"29":0.06329287127312588,"30":0.07302517514343637,"31":-0.24553760747706257,"32":-0.18325052970581124,"33":0.19533350217726533,"34":-0.11698649304580179,"35":0.03522006696646689,"36":-0.048406543908327104,"37":-0.14082653809689671,"38":0.03195007053048753,"39":0.16731789132056876,"40":0.2505410394162758,"41":-0.023975806238618152,"42":-0.035755593628836464,"43":-0.009465340003339416,"44":0.033597565086919495,"45":0.04616944117464829,"46":-0.09292993719096695,"47":-0.022244119405356942,"48":-0.11186714887546213,"49":-0.02333623389315577,"50":0.14012595467007963,"51":0.028154804465994256,"52":0.18637814176800727,"53":0.01265353776805042,"54":-0.01990007841170485}},{"sx":1,"sy":1,"depth":55,"w":{"0":-0.031226014360677897,"1":-0.04818655787424658,"2":0.14474520078517297,"3":0.08736929569056784,"4":-0.17776103807660765,"5":0.1317624376300858,"6":0.0336885272547497,"7":-0.03819353075482823,"8":0.14746246903429622,"9":-0.09941344371230512,"10":0.09247723730459399,"11":0.028196016547744465,"12":0.1986704871224009,"13":-0.1983996974160426,"14":0.1139117750102668,"15":-0.04331978678912764,"16":0.011620335227298013,"17":0.021900300087780742,"18":0.038225430721745,"19":-0.1722169977716422,"20":0.0709453215482688,"21":-0.3491721597224361,"22":0.06984536435407543,"23":-0.10223454334226138,"24":0.05645375085745534,"25":-0.297751018847859,"26":-0.099260393347878,"27":-0.11011929916963577,"28":-0.0008201569870483701,"29":-0.20308607307292015,"30":0.17006349886789712,"31":0.014133915019125785,"32":-0.127854671142584,"33":-0.01960668159286307,"34":-0.12480267770487187,"35":0.17273881011224937,"36":-0.29757294136445167,"37":-0.20398974094599484,"38":0.02653991784719337,"39":0.04970895289958158,"40":0.21818174182391506,"41":0.08086736911933885,"42":0.06502063761983497,"43":0.12057780943264444,"44":-0.14176639933873023,"45":0.11546159906632682,"46":0.23398403470967583,"47":0.08558838335366563,"48":0.01934735116786024,"49":-0.18086731138544715,"50":0.1177259092239514,"51":0.10636345663988382,"52":-0.16011176159821608,"53":0.07992039100825113,"54":-0.04674479364965512}},{"sx":1,"sy":1,"depth":55,"w":{"0":0.13244251434811752,"1":-0.2136426875469604,"2":0.09965694512567881,"3":-0.23568959857737118,"4":0.07736910185710333,"5":-0.14474287482550938,"6":0.22575411373598256,"7":0.15744690677572815,"8":-0.06565158724574675,"9":-0.22867612197710427,"10":0.023294055409547373,"11":0.032321246305133396,"12":-0.11281887925491269,"13":0.02239891157649707,"14":0.05212675844729936,"15":0.028701965008390475,"16":0.04698304438403617,"17":-0.1266301738598403,"18":-0.3329021072049854,"19":0.046320744811946306,"20":0.016904901529135718,"21":0.0028266765301082383,"22":-0.11376119143410106,"23":-0.3520220978089104,"24":-0.15721079850974656,"25":-0.05999936453963314,"26":-0.021770022482424465,"27":-0.1928791136396632,"28":0.007616559807685086,"29":0.057596788384411096,"30":0.05733517758137837,"31":0.012866304824639935,"32":0.22208229815221509,"33":0.04913066021209325,"34":-0.061843297275221025,"35":-0.04602994159832739,"36":-0.18261058654934442,"37":0.098509161451146,"38":0.07922764021240548,"39":0.13209597068111298,"40":0.000016564351830123018,"41":-0.0010439704551061574,"42":0.2581575494080433,"43":-0.06304743211875735,"44":0.15224620739431777,"45":0.019785765428303306,"46":-0.039081735164377365,"47":-0.01291955876544696,"48":0.04065713417578241,"49":0.15059281855656706,"50":0.06896921876204609,"51":-0.006348359474846552,"52":0.2243823811584054,"53":0.13165319384890392,"54":-0.021943733426760238}},{"sx":1,"sy":1,"depth":55,"w":{"0":0.06585882611457923,"1":0.06380889331624932,"2":0.06716202329527261,"3":0.27582979528226004,"4":0.0747914895804142,"5":-0.11014910295492707,"6":-0.010518659050769057,"7":-0.14867910813032506,"8":0.2889347240715603,"9":0.03345171949111678,"10":-0.19506149365064948,"11":0.10885826264812823,"12":0.01857986244403049,"13":0.2150289032436343,"14":0.003411709542405183,"15":0.07574841527053379,"16":0.026407059900822635,"17":0.09295734128335618,"18":-0.03553614738531226,"19":0.022046203261039177,"20":-0.03927633341489309,"21":0.08452712755391298,"22":-0.011360940916527404,"23":0.0419747520954837,"24":-0.251269279954389,"25":0.15073702813387307,"26":0.3348110506585692,"27":0.05484522008914616,"28":0.10758208185145199,"29":-0.09734326852397687,"30":0.06731509685293316,"31":0.09341008276160302,"32":-0.04544426416901656,"33":-0.21403964034477804,"34":0.08344991935816441,"35":0.016706988707843203,"36":0.21927345292368564,"37":0.20389067593159504,"38":0.03353202039627537,"39":0.1174028145759972,"40":0.0923046573995302,"41":0.11004621350541569,"42":-0.392315717755303,"43":0.0661902272094553,"44":-0.09240001737916692,"45":-0.039209501371208336,"46":-0.026201940682436732,"47":0.045498888810591394,"48":-0.09373311999917575,"49":-0.24735737131141605,"50":-0.06207623469698965,"51":-0.019472502529918542,"52":0.0752183776591524,"53":-0.07604213195653738,"54":-0.1490115883752349}},{"sx":1,"sy":1,"depth":55,"w":{"0":-0.006880034741540399,"1":0.12540967760843016,"2":-0.15062894123079928,"3":0.04654954090675453,"4":0.04736521198827882,"5":0.0671488478092058,"6":0.12015222708737643,"7":0.00303862899403628,"8":0.010246081356669247,"9":0.07634091156274034,"10":-0.033512592481918,"11":-0.03852180448623822,"12":0.09981373386549419,"13":-0.041741042414225264,"14":-0.20890660307473866,"15":-0.05581464329440422,"16":0.007653405467619032,"17":-0.030985545270045867,"18":-0.0723424376003469,"19":0.17893210514764288,"20":-0.037738682241397134,"21":0.07831781002028616,"22":0.1642834650507884,"23":-0.26535282483253275,"24":0.16377359378188083,"25":0.08337723408268134,"26":0.17961778236683676,"27":0.11032323465656742,"28":0.005469330113955865,"29":-0.00189533413660083,"30":0.02680074183502858,"31":-0.05063385236754537,"32":0.22177793811106247,"33":-0.16494197447459288,"34":0.3373939679674774,"35":-0.3230985137022271,"36":0.1513162305361688,"37":0.2452627181613944,"38":0.00589445606509794,"39":-0.0949583089147138,"40":0.45315854369802044,"41":0.0009831897062509685,"42":-0.05496349030480614,"43":0.025529533691172827,"44":-0.10741533664725736,"45":0.10296378014189918,"46":0.03686134920852713,"47":0.031934885301336396,"48":-0.2942454931871221,"49":0.1100084567644089,"50":-0.009267537252986286,"51":-0.09848172703413378,"52":0.09535170433220495,"53":-0.15343491176309246,"54":-0.01241255889615783}},{"sx":1,"sy":1,"depth":55,"w":{"0":-0.004903067939779476,"1":-0.15537385695409683,"2":-0.09516503122695967,"3":-0.15008439431646178,"4":0.09770983491456574,"5":-0.07062825007066925,"6":-0.07303672502628203,"7":-0.23989986423174933,"8":-0.27987758255935774,"9":-0.11423055558746768,"10":0.18950300645550042,"11":0.09594281046917233,"12":0.057381870618118204,"13":-0.023397630929258943,"14":0.31964209131377147,"15":0.045440169260778325,"16":-0.07675379991723724,"17":-0.009967799327688678,"18":0.015563922002979683,"19":-0.16197956765512408,"20":-0.04491709823227308,"21":-0.26029328368508564,"22":-0.008181384563576638,"23":-0.03386412389442453,"24":0.14873809472613772,"25":-0.13157578119952917,"26":0.21257058603235543,"27":-0.02913687949660049,"28":0.132681833609584,"29":0.04145934995812386,"30":-0.008891781457933956,"31":-0.12144056030870685,"32":-0.28545658686570047,"33":0.17302433885378996,"34":0.010050815637217119,"35":-0.2041871364332131,"36":0.32749726481195934,"37":0.054982873840348986,"38":0.06058731148302744,"39":-0.0993459492568796,"40":-0.12840075297455444,"41":-0.0948788599507371,"42":-0.02310130541300531,"43":-0.07470200302497544,"44":0.15184966368127015,"45":0.022758830186093093,"46":-0.03233018890558191,"47":0.24874685876395122,"48":-0.12687126292040918,"49":-0.2564939698415972,"50":0.06473082562694503,"51":-0.009715397430233075,"52":0.0863921398403174,"53":0.11638846961583689,"54":-0.06588897047463524}},{"sx":1,"sy":1,"depth":55,"w":{"0":0.042905158264929584,"1":-0.09207891735570689,"2":-0.05632320365066621,"3":0.1058425047493983,"4":-0.023375882830640137,"5":-0.069306322224503,"6":-0.03366254907154939,"7":-0.30948179183080177,"8":0.20628681258686862,"9":0.04802633311917323,"10":-0.04816143222705218,"11":0.09614125206374788,"12":-0.08085203193922305,"13":-0.07972107111110023,"14":-0.038461368201616254,"15":0.054959994511068276,"16":0.044474822869340985,"17":0.18572325916057314,"18":0.15115928645181234,"19":0.1095117799032815,"20":0.07321086758613632,"21":-0.15674221131581886,"22":0.0015476252894299617,"23":0.01927778579359121,"24":0.04375712000759091,"25":0.03905001407629012,"26":0.3128262787861571,"27":-0.14818379000299825,"28":0.13914222036762036,"29":0.029774189531935624,"30":-0.07163197232458414,"31":0.08906168073772718,"32":0.05010101826606557,"33":0.11880656662044294,"34":0.2229448850951416,"35":-0.03782246263822638,"36":0.13161162828395143,"37":-0.2081657202202227,"38":-0.00941011274911479,"39":-0.08289854435800383,"40":0.0772529965640596,"41":0.25052203303216747,"42":-0.07902922162093659,"43":0.034165669632196534,"44":-0.12200347530781504,"45":-0.11050005160255698,"46":0.10915293941259699,"47":0.047522373793689184,"48":0.007635510253527405,"49":-0.08840989637601065,"50":-0.09942248429929056,"51":-0.11623069107000435,"52":-0.019781316508102168,"53":0.1015616323907514,"54":-0.17380283814253586}},{"sx":1,"sy":1,"depth":55,"w":{"0":0.018054294954048845,"1":0.03670534728568239,"2":-0.06353095225886622,"3":-0.052064996911463636,"4":0.029648053217874188,"5":0.06287890302106469,"6":-0.2773486482497349,"7":0.22475466987374595,"8":-0.14486134082720795,"9":0.11562639121935299,"10":-0.1252449118400882,"11":0.08404356155891238,"12":0.24077713987409585,"13":0.0512873456653933,"14":0.04036287367686152,"15":0.07492357588450342,"16":0.024864058921470436,"17":-0.04108511020307297,"18":-0.023516976213921112,"19":-0.22364791101941697,"20":0.07901270934968477,"21":-0.1105934398286951,"22":-0.09882463976504681,"23":-0.05858428863246136,"24":0.003740387762015379,"25":-0.1734659583758045,"26":0.012209783945286361,"27":0.08794179212004744,"28":-0.15679061380489484,"29":-0.033502345014077735,"30":0.20446961337400243,"31":0.06446178217571659,"32":0.19470929688654467,"33":-0.011253061281049305,"34":-0.018577177427735334,"35":0.13268112487850406,"36":0.018749187327944866,"37":0.09782486500661525,"38":-0.23067800715752804,"39":0.02546664478929692,"40":-0.24467729365557278,"41":0.06353960616459368,"42":-0.03598332147453632,"43":0.00013610374163950913,"44":-0.08713790147613881,"45":-0.03895211552535323,"46":-0.037578737106908996,"47":0.13178833830663475,"48":0.13621148250506632,"49":0.29208605464897475,"50":0.041005364106891276,"51":-0.0020811635935387668,"52":0.15269422713569206,"53":-0.14792563524280544,"54":0.037175514344069155}},{"sx":1,"sy":1,"depth":55,"w":{"0":0.12849340380809265,"1":-0.024963780985010908,"2":-0.02517469229339789,"3":-0.07850221275096822,"4":-0.18630187006867474,"5":-0.12869135461163328,"6":-0.08286894266875139,"7":-0.3322503063183951,"8":0.042228891301172404,"9":-0.009955271894336778,"10":0.08174445171354278,"11":-0.10018343355392659,"12":-0.020232400453027672,"13":-0.33878577555664013,"14":0.050127161906894445,"15":-0.16013111495514845,"16":0.16494098092578874,"17":-0.03199531504765358,"18":0.27396920327068497,"19":-0.03359845802340835,"20":-0.044107897628761,"21":0.009119564904587174,"22":0.04284482696267898,"23":0.12072399754898874,"24":-0.33137248597366115,"25":-0.0170113760266396,"26":0.1764737810974956,"27":0.015018626146648669,"28":0.032165620042649105,"29":-0.1508006326153365,"30":0.12041918436370017,"31":-0.12705932783343935,"32":-0.11324513928046243,"33":-0.180843302895614,"34":-0.23729343856519308,"35":-0.011471135347244072,"36":0.08264643697472224,"37":-0.13792362587922236,"38":0.09106490859908971,"39":0.02046943545404207,"40":-0.042607087192733185,"41":0.09105776244726344,"42":0.08809365034745226,"43":-0.07597041662656348,"44":0.09924577572563774,"45":0.11443473998724533,"46":-0.007223769924446109,"47":-0.049255029595173444,"48":-0.03617695075704855,"49":-0.0858313431112862,"50":-0.15608692030912152,"51":-0.027947437071253363,"52":0.01248910612593623,"53":-0.0335796972164169,"54":-0.12121621206317933}},{"sx":1,"sy":1,"depth":55,"w":{"0":0.1898644349183359,"1":0.024202636701536873,"2":0.4613211230669413,"3":-0.05129852876222169,"4":0.04585748417855676,"5":-0.0729838648016253,"6":-0.018642948864000978,"7":0.1236297886370657,"8":-0.015755262926185645,"9":-0.02685151334240188,"10":0.14385221502799686,"11":0.00811644679586469,"12":0.09562527294310892,"13":0.1885368421738531,"14":0.02436172318783739,"15":0.1081422952973011,"16":-0.1069400439620603,"17":-0.1772432837163865,"18":-0.020423422504440354,"19":-0.01822658230559985,"20":0.18548699231420343,"21":0.17585479823707062,"22":-0.1416793258784349,"23":-0.11317527042938794,"24":0.03068325442951996,"25":0.12666532559734572,"26":-0.1620145796670515,"27":-0.20393668484031177,"28":-0.051399235094909596,"29":0.12717546226438575,"30":0.09894834290434061,"31":0.006624514156140586,"32":-0.08715138181270222,"33":-0.3816607720875501,"34":0.07656904480588918,"35":0.11414623458548404,"36":0.16159983694921215,"37":0.11111343256204029,"38":-0.006584476578512097,"39":0.08206944900752829,"40":-0.1292950612803615,"41":0.05259574908105731,"42":0.06358731240656525,"43":0.07862863950328948,"44":0.11967472629672503,"45":0.23006261054830462,"46":-0.05775850508628735,"47":0.06077641544287895,"48":0.20557392663002846,"49":0.06043984655967748,"50":0.12914894382114647,"51":-0.022990158482021433,"52":-0.08210553638450989,"53":-0.15828144068188246,"54":-0.18177948360359159}},{"sx":1,"sy":1,"depth":55,"w":{"0":-0.0467574556132757,"1":0.10637133878789473,"2":-0.23187920992928948,"3":-0.10645623274819614,"4":0.0815247846059179,"5":-0.09037250861007229,"6":0.046708467891648106,"7":0.09852302735115605,"8":0.1465402174498136,"9":-0.05613332229237021,"10":-0.14261269112880592,"11":-0.07452998165627403,"12":0.01871288870993338,"13":0.08337628466554615,"14":-0.07658663403796477,"15":0.05508506517799167,"16":-0.000981603201172511,"17":0.009660682611189199,"18":0.02208110691233665,"19":0.07253488237711687,"20":0.09006459765620894,"21":-0.24152279422970094,"22":-0.010084818698756683,"23":-0.11067438318752057,"24":-0.0458251626053244,"25":-0.0075625378715522135,"26":-0.13775951942092865,"27":-0.2985285917213742,"28":0.08976658726558016,"29":0.056271200859239354,"30":0.10385943597067143,"31":-0.19059864844063437,"32":-0.2220596324986426,"33":0.149448950754519,"34":0.08797748655721103,"35":-0.057623820365899574,"36":-0.19969958557808873,"37":-0.1205823811514983,"38":0.13059665524388603,"39":-0.1265645194112247,"40":-0.10054776737704839,"41":0.043546683578685956,"42":-0.20442225261695193,"43":-0.19717016517187874,"44":0.14610855742397214,"45":-0.09327753202747706,"46":-0.08009764708039546,"47":0.15166002384390903,"48":0.17029582961849465,"49":0.08360867981645777,"50":0.21992004740802218,"51":-0.14121746434062749,"52":0.12023484378742777,"53":0.13038773656416192,"54":0.02350535284914373}},{"sx":1,"sy":1,"depth":55,"w":{"0":-0.11681624063158656,"1":0.016840566551387198,"2":0.0244949727354719,"3":-0.059430890183019086,"4":0.1688107714359144,"5":0.0751578203574241,"6":-0.0016284862026442295,"7":0.039267562480747094,"8":-0.1358525175134875,"9":0.09131817765369041,"10":0.08207587627326222,"11":-0.02693318713796182,"12":-0.11011481426953876,"13":0.014963156686978514,"14":0.3316509589808609,"15":-0.01139472197550849,"16":-0.14665041231228648,"17":-0.13891256955331735,"18":0.21121459918691665,"19":-0.005810676988745984,"20":0.01656448523116386,"21":0.1407752103144142,"22":-0.3198181706746192,"23":0.11799510009329747,"24":-0.01877403371151622,"25":0.07537935883413646,"26":-0.018275573222856705,"27":-0.060020458047762126,"28":-0.13722782038327008,"29":-0.06906426069290592,"30":0.04290464023977098,"31":-0.08268370855412711,"32":0.019247178558564774,"33":-0.08393914723427236,"34":-0.1428268074692496,"35":-0.14386875832469395,"36":-0.2649464336404307,"37":-0.1665667280369461,"38":-0.09134632096589357,"39":0.02967227164401481,"40":0.036899404288467684,"41":-0.07612670046399808,"42":-0.16194679185022715,"43":0.032346172595317246,"44":0.1513278942228872,"45":0.06016534404492113,"46":-0.03792048750583112,"47":-0.18774865184017872,"48":-0.23057266041097993,"49":0.04532395308173088,"50":-0.12929784962675644,"51":-0.06799071623838769,"52":-0.0050280438036340615,"53":0.23385309680816768,"54":-0.09480483404766334}},{"sx":1,"sy":1,"depth":55,"w":{"0":0.31866119199556037,"1":-0.09482923968356519,"2":-0.10569261215920182,"3":-0.1144516915217571,"4":-0.20019951916317624,"5":0.08492352137213624,"6":-0.11828243991738585,"7":0.12618738196406457,"8":-0.07857680317597551,"9":-0.19863575167095182,"10":-0.16436995214647332,"11":-0.2572674740435416,"12":-0.12706743366314194,"13":0.0001609633371143104,"14":-0.08381022958361475,"15":0.16903382247700155,"16":-0.1651897907942976,"17":0.0034057620092283673,"18":-0.2159903610581863,"19":-0.27729939347727844,"20":-0.195767378183359,"21":-0.12014044014517979,"22":-0.052020928926512056,"23":-0.1030365021604738,"24":0.09657385503498561,"25":-0.13182072593532096,"26":-0.01817485345200822,"27":0.17607691042017512,"28":0.21431043503072872,"29":0.24565739042532153,"30":-0.14098896151235035,"31":0.10238854420234746,"32":0.11132356848050204,"33":0.16711012916916151,"34":0.05844615338048789,"35":0.03884860986648324,"36":-0.14185525904047935,"37":-0.20302389669669593,"38":0.14663002028840713,"39":0.32880832353851475,"40":0.12092075134619026,"41":-0.19801466423751565,"42":-0.09606436874515946,"43":-0.08497814163206989,"44":0.4190251036813716,"45":-0.03822483830566386,"46":-0.3154888161178238,"47":-0.19187581239337784,"48":-0.1730575732419337,"49":-0.006779960580349747,"50":-0.19698337064797597,"51":-0.01737531562937881,"52":0.2347639154379905,"53":-0.05471157312777526,"54":0.11494279943565146}},{"sx":1,"sy":1,"depth":55,"w":{"0":-0.17130128067494188,"1":-0.11278977510574738,"2":0.0762124943822036,"3":-0.04407625401268601,"4":-0.024387658162345397,"5":0.1962475570002318,"6":-0.08889400937954081,"7":-0.16030806178302967,"8":-0.0826860160600769,"9":-0.0675428892193701,"10":0.014254705002178365,"11":-0.009074326307330733,"12":0.0483903147368914,"13":-0.1624156439888237,"14":0.11148298191469594,"15":-0.10224696109541587,"16":-0.08852736908155046,"17":0.12349697160737363,"18":0.24273954263786973,"19":-0.08157731101641448,"20":-0.07092053100057932,"21":-0.0472293760269327,"22":-0.10030329540550342,"23":-0.034535094294110114,"24":-0.09234663430490374,"25":0.07131799516661244,"26":-0.029957820239309953,"27":0.0511935697956996,"28":-0.019019889741854864,"29":-0.16138955967897206,"30":0.16874729459917673,"31":-0.09485753452131536,"32":0.15485374506993568,"33":0.0007358230929325363,"34":0.07177842858598805,"35":-0.07863076747796337,"36":-0.09112136251919331,"37":0.03242712012243947,"38":0.11363903806743095,"39":-0.07337081607333217,"40":-0.1061523262849883,"41":-0.09110097136077601,"42":0.28187241090103315,"43":-0.10207317012759229,"44":-0.011718356782096918,"45":0.04082515585029947,"46":0.03767375729745289,"47":0.08225064827312965,"48":-0.1789714188346875,"49":-0.17049499587123307,"50":0.1521538143630623,"51":-0.06903484735077131,"52":-0.11503340361745319,"53":-0.09278094256469385,"54":-0.1717353576067107}},{"sx":1,"sy":1,"depth":55,"w":{"0":0.20939499613560414,"1":-0.022670207232820885,"2":0.054126849347696834,"3":0.13835013399395552,"4":0.07219357264784762,"5":-0.029827190938326725,"6":-0.023533711488450532,"7":-0.22429439833737527,"8":-0.047605045016519146,"9":-0.03098979032047048,"10":0.2027544277334744,"11":-0.05592115967841844,"12":0.057753450025088665,"13":-0.21986418601150415,"14":0.07422432055973999,"15":-0.08467666229120405,"16":0.00781821280652393,"17":-0.03369751861800714,"18":0.11531563297876812,"19":-0.10741851185474054,"20":0.037778946198081184,"21":0.1494395530834812,"22":0.0332418446818759,"23":-0.06482661272951801,"24":0.0912116109223645,"25":0.013841225845294005,"26":-0.06584425685855666,"27":-0.13413227296838143,"28":-0.14030301925290473,"29":0.10907789318819411,"30":0.15999995615156293,"31":0.11607784655032814,"32":0.11917050670608824,"33":0.12283886998576313,"34":0.019022852675945917,"35":-0.07511690659385632,"36":0.21599193778906908,"37":-0.06344327404337015,"38":-0.006442190317492829,"39":-0.27939590093097444,"40":-0.04037903636496487,"41":0.026480135056539036,"42":-0.16813834733052724,"43":-0.04985974653045146,"44":0.11429960027485632,"45":0.08467794629278498,"46":-0.018713866695916327,"47":0.1548651704117433,"48":0.22641976881641043,"49":0.07147703770948867,"50":0.10879160519794542,"51":0.09947264067642629,"52":0.10021591969118572,"53":-0.0897566024491504,"54":-0.12299066365414005}},{"sx":1,"sy":1,"depth":55,"w":{"0":-0.21612438484225657,"1":-0.24432025546023203,"2":-0.14750178019979168,"3":-0.02672296544092226,"4":-0.020907903765428466,"5":-0.1529294872833866,"6":-0.03765021157634048,"7":0.00907742868648129,"8":-0.0741600256019816,"9":0.03538983394095845,"10":-0.09056299370707109,"11":-0.04957104098540091,"12":0.180679145566066,"13":-0.002424436690058763,"14":-0.005421388578845251,"15":0.028161757921344965,"16":-0.06248160673862619,"17":0.03259141738465053,"18":0.1397925610522742,"19":-0.13836345797726105,"20":-0.11141631789605033,"21":-0.07092527695646621,"22":-0.26567503275795384,"23":0.12420244808148606,"24":-0.14862571832347818,"25":0.045183334897512584,"26":-0.16417244168048542,"27":-0.12127624572736377,"28":-0.05004644877836988,"29":0.11290446697533607,"30":-0.011195224089079551,"31":0.06369772251082757,"32":0.01833911677096018,"33":-0.015598503081994303,"34":-0.06419750691832529,"35":-0.05033352043410899,"36":0.02196159531255238,"37":0.21805529617937783,"38":-0.2337907015861096,"39":0.24680492664296655,"40":0.05820225736903032,"41":-0.10511242624961546,"42":0.17099544514425036,"43":-0.002822267896207043,"44":0.23280393316669032,"45":-0.1289339987561439,"46":0.15669072405381196,"47":-0.04826072035988999,"48":-0.021428713892728005,"49":-0.13640177513793436,"50":0.05878892891888294,"51":-0.29932376186716375,"52":-0.014485702268041406,"53":0.06789076118739902,"54":-0.3477489454204018}},{"sx":1,"sy":1,"depth":55,"w":{"0":0.19596838133468372,"1":-0.17000288362299684,"2":0.013994788738068116,"3":-0.04602650739221945,"4":0.1401493066931929,"5":-0.06471300782406096,"6":-0.06722448712248344,"7":-0.07266798748775578,"8":0.1682855780364282,"9":-0.3888581711784175,"10":-0.07358842313274953,"11":-0.1368277913945831,"12":0.2113717404869131,"13":-0.07330162453963995,"14":-0.31993821230084984,"15":-0.048968759313717386,"16":-0.17912940707719763,"17":0.0050807535145226445,"18":0.1563730022755005,"19":0.24890086542313836,"20":0.3089832152470761,"21":0.036238030758320175,"22":-0.40742704349395187,"23":-0.0982759624504886,"24":0.026752232730512304,"25":-0.14654753655267935,"26":0.02371397304643701,"27":-0.07602890494269841,"28":-0.07604644396652203,"29":-0.07159220111908073,"30":0.08939548218247252,"31":-0.1368718805544594,"32":-0.27183108389154836,"33":-0.2582666421237583,"34":-0.17884007215471695,"35":-0.021721974966814394,"36":0.04993665984224465,"37":0.2627488146644636,"38":0.1639382073984948,"39":0.15463835187418554,"40":-0.10750316496759432,"41":0.17849790871326113,"42":-0.07577694327802659,"43":-0.04795787899037497,"44":0.22707051460563446,"45":0.17358598887002144,"46":0.11707255767141714,"47":-0.10276636725956763,"48":-0.36411823436599544,"49":0.03878611783035865,"50":0.1269035578465512,"51":-0.013541090214903895,"52":-0.06761417341162916,"53":0.21112231099598922,"54":-0.0042094274355544805}},{"sx":1,"sy":1,"depth":55,"w":{"0":-0.30800080100799404,"1":-0.1613297727425159,"2":-0.18305868688579005,"3":0.03360176677677212,"4":0.028031315262503433,"5":0.06330503796164867,"6":0.003936881704341862,"7":-0.16555492435401423,"8":0.12040315049177615,"9":0.03609885948657328,"10":-0.006125067683831311,"11":-0.14660247996985057,"12":-0.14783419165904854,"13":-0.05109537375527511,"14":0.12151854664494831,"15":-0.024874148105158752,"16":-0.11357346229123708,"17":0.15579562784711223,"18":-0.14181146899549926,"19":-0.10895977341738006,"20":0.005742608832393333,"21":0.1454387656325288,"22":-0.08624702047542308,"23":-0.171318360537546,"24":-0.3080795764275708,"25":0.2445351168145275,"26":0.006064402083858518,"27":-0.17151120648623194,"28":0.12886253736062536,"29":0.06566546130083649,"30":0.09882165958572695,"31":0.06420257384515797,"32":0.11788464240773859,"33":-0.053147156440566265,"34":0.033862424039533066,"35":0.006795301807096332,"36":0.21789361838153934,"37":0.009465580950548365,"38":-0.10512530789379075,"39":0.17711088034716485,"40":-0.08261821854850948,"41":-0.057299927136452135,"42":0.04849250931236366,"43":-0.019780648507137722,"44":0.07043256287783571,"45":-0.043532224151285236,"46":-0.0906164543249726,"47":0.25478127131344624,"48":0.029150231499068636,"49":0.08055350980897961,"50":-0.14270705940702763,"51":0.07218842058075023,"52":-0.1310646538151248,"53":0.029147583837705437,"54":0.0029639844280973005}},{"sx":1,"sy":1,"depth":55,"w":{"0":-0.30059852619980726,"1":0.13145235154647947,"2":0.30971853825243784,"3":-0.03522581828053609,"4":-0.1061673424849408,"5":0.1519468813507716,"6":-0.08483439078241405,"7":0.07059520735397212,"8":0.1201267109415911,"9":-0.19294424584806033,"10":0.011679354895945281,"11":0.16680137953006616,"12":-0.01867162187819482,"13":-0.26217208025823463,"14":-0.00014237685856180433,"15":-0.18466570709608854,"16":0.14929515910835142,"17":-0.06059925200959175,"18":-0.008608177844144785,"19":-0.1989984932871382,"20":0.05306446025425364,"21":-0.07458791300559435,"22":-0.10769436687046094,"23":0.04598454181296391,"24":0.07785604243176523,"25":0.011600114878492052,"26":0.11103969124595083,"27":0.06519375088503354,"28":0.07130733617564838,"29":-0.21080428854319366,"30":-0.02205063092832382,"31":0.06527441642794123,"32":0.13645493224640942,"33":0.20863707089826541,"34":-0.057818351267501046,"35":0.07361839666989929,"36":0.17721927853224304,"37":0.004250122493370332,"38":0.08650766927628616,"39":-0.08524521012107761,"40":0.012918511860357324,"41":-0.042903578853207086,"42":-0.015919018852573404,"43":-0.028086969480384767,"44":0.14484794688015776,"45":-0.06782093202234206,"46":0.0928666690260949,"47":-0.10604273910133115,"48":-0.01840915728446856,"49":-0.0016886322808033105,"50":0.018650513165722245,"51":0.08800895737397939,"52":0.2200980841465383,"53":0.16509641617041274,"54":0.0652016491076563}},{"sx":1,"sy":1,"depth":55,"w":{"0":-0.02592706187572982,"1":0.011398034531499616,"2":0.0984261847255999,"3":0.042982845842258935,"4":-0.07955015157376961,"5":0.03534230728226725,"6":0.1272915659622657,"7":0.26962498649532546,"8":-0.0866777162467381,"9":0.03846218103618408,"10":-0.01832779849442214,"11":-0.06984765329884005,"12":-0.06304785917175205,"13":-0.25650400744553603,"14":-0.012609283436233472,"15":0.06152347328603393,"16":0.02611373071834731,"17":-0.08838915061891234,"18":-0.013778008166029549,"19":-0.11620784899779289,"20":-0.08181252560289162,"21":0.24276468178316257,"22":0.22282608336719054,"23":-0.10343889871493371,"24":0.10008678096991526,"25":-0.18702470591346615,"26":-0.08880578199577321,"27":0.29587137357561555,"28":0.00876055336271973,"29":0.039142313709672645,"30":0.08545291703269942,"31":-0.24458026576477235,"32":-0.07384651658138766,"33":0.01862134744395345,"34":-0.007841600582450165,"35":-0.03600901350381241,"36":-0.05802967019188385,"37":0.06035870441632478,"38":-0.008682705532088658,"39":-0.15426567205383654,"40":0.06901686332793677,"41":-0.001322066525014435,"42":0.2266361547394234,"43":-0.153759734928572,"44":0.07404188506245439,"45":0.02850556814670109,"46":-0.10694095950941065,"47":0.05946908492707317,"48":-0.10664896253895255,"49":-0.3098147780985056,"50":0.21918430335131484,"51":0.13404274340327063,"52":0.1997843026199917,"53":-0.31565362702023525,"54":-0.01244918106622255}},{"sx":1,"sy":1,"depth":55,"w":{"0":0.06757966657387793,"1":0.06016911730727658,"2":-0.011152085597969374,"3":-0.24249198860199453,"4":0.26699794199408833,"5":-0.10054118882842646,"6":-0.10997205847151596,"7":-0.02608770324814088,"8":-0.3444034403565115,"9":0.20362404400574274,"10":-0.13622633699388298,"11":0.11251883182494334,"12":0.25644029124690204,"13":0.1779715017010761,"14":0.022860944227883144,"15":-0.16274235187526007,"16":-0.010323728693932933,"17":0.03072177823169976,"18":0.08840197167670782,"19":0.057388306167844315,"20":0.2029284370459841,"21":-0.27375550204484556,"22":0.25054684003471217,"23":0.00566329425792084,"24":0.053585404343476466,"25":-0.08118428582862036,"26":-0.08497838548663003,"27":-0.1565253466075247,"28":-0.08844987413429573,"29":-0.04176671659811313,"30":0.023029741945875638,"31":-0.21802358009187528,"32":0.13788225843861182,"33":-0.012431183877435671,"34":0.023111251200910995,"35":0.10117049836050664,"36":0.0034419626219440547,"37":0.4124520006427449,"38":-0.1328035669919373,"39":0.1610937599155174,"40":-0.13013230285148666,"41":-0.0484085754957701,"42":0.1482311434991382,"43":-0.035393629645568955,"44":0.10472052501626486,"45":-0.2097793800114372,"46":-0.033345657936019714,"47":0.18247980728343108,"48":-0.07832154200145926,"49":0.06483065152721525,"50":0.09035731459799551,"51":-0.06298232068762272,"52":0.1710077511412371,"53":-0.05657979708443364,"54":0.1011914756339919}},{"sx":1,"sy":1,"depth":55,"w":{"0":0.05707323647899446,"1":-0.14606254627319396,"2":0.10432154596917773,"3":0.1987802187696314,"4":-0.06163403854996851,"5":-0.16046553643137557,"6":0.00890190346565456,"7":0.04775594364925539,"8":-0.12782923285244074,"9":-0.024797502987813618,"10":0.03753259280300915,"11":-0.030472203374441682,"12":0.028314215090576567,"13":-0.025208616355559578,"14":0.04549047178416247,"15":0.004693749382396191,"16":-0.07042163395179316,"17":0.14478213020784603,"18":-0.16109234569306846,"19":0.046059359292150895,"20":-0.07974187591297831,"21":-0.1006994868370931,"22":0.10437197803454708,"23":0.006946736552593042,"24":0.14083101662047107,"25":0.047729875031194725,"26":0.056638281204275366,"27":-0.04552205143808427,"28":0.04510989362156082,"29":0.04545408361044618,"30":-0.09014948061665963,"31":-0.0808775462769656,"32":-0.04925814733308,"33":0.1842065811168109,"34":-0.06535847036157616,"35":0.05382893630256029,"36":0.3125445414409007,"37":-0.28424677981871477,"38":-0.06454084637568654,"39":-0.1089038790997201,"40":-0.19467760089855948,"41":0.09410032898082482,"42":0.10597086000676399,"43":0.1328621886569801,"44":0.19345207359840141,"45":-0.08609301933289204,"46":0.14224131542354715,"47":0.09075365135503123,"48":0.0043036019977933625,"49":-0.06059040389334506,"50":0.071373169696131,"51":-0.02142601058638239,"52":0.08725069896042777,"53":0.07738987618494417,"54":0.011840129672823151}},{"sx":1,"sy":1,"depth":55,"w":{"0":0.04458759248456956,"1":-0.06898512118464867,"2":0.09130524702929071,"3":0.11578868965547992,"4":0.13505744426340005,"5":-0.16535644646552894,"6":0.16030442941041675,"7":0.05964600958739483,"8":0.2794350955408247,"9":0.1112802353986262,"10":-0.06308877779445195,"11":0.04166817859025167,"12":-0.10933241010031718,"13":0.38462802653122075,"14":-0.2703491496020989,"15":0.24246869705729218,"16":0.20401685873417383,"17":-0.0757172703087727,"18":0.16744173164606135,"19":0.057550396688749846,"20":-0.13849341158472217,"21":0.0752309714720802,"22":-0.11971009264130689,"23":-0.0880118199562786,"24":0.11264787302440951,"25":0.09482650322862972,"26":0.10439945587664072,"27":0.06716443089342339,"28":0.05914204316707907,"29":0.0029918066285913266,"30":-0.029695063698350517,"31":0.031349280976084,"32":-0.01799472655000897,"33":0.0019364522777061753,"34":-0.019862520323646028,"35":-0.03496526753314609,"36":0.34017324448259295,"37":0.13939589573256078,"38":0.011331519775520306,"39":-0.3041874892865737,"40":-0.05057687185890253,"41":-0.10402816767131663,"42":0.030611170378067973,"43":0.09637587107047825,"44":-0.21492946586620928,"45":-0.048381210219151406,"46":0.05796709913355909,"47":0.03926840005799759,"48":0.3062259668780851,"49":-0.007051071222360218,"50":0.014496344189031547,"51":0.0355147782207707,"52":-0.026754747961714963,"53":-0.07721139725697737,"54":0.07040818049488086}},{"sx":1,"sy":1,"depth":55,"w":{"0":0.04028180969344145,"1":-0.08022405808638836,"2":-0.07182039915195151,"3":0.0624180321433785,"4":0.14493495088615427,"5":-0.198112067768738,"6":-0.14274242725912964,"7":-0.01862925716197261,"8":0.14807801944625856,"9":0.19439088821359965,"10":0.1700898229326245,"11":0.0005681877853789133,"12":0.08274059764024973,"13":-0.06818529252902943,"14":-0.13001121078003286,"15":0.22453581677201942,"16":-0.06622678160086573,"17":0.20229654387980114,"18":0.2634714758929213,"19":-0.055285787558806636,"20":-0.025820291918684006,"21":-0.012205701957125194,"22":-0.10735624389680061,"23":0.0746029171855908,"24":-0.005687600291741723,"25":0.07028379923883349,"26":-0.10642590040244612,"27":-0.03470395857185694,"28":-0.08320793606974881,"29":-0.059393678295860335,"30":0.03241563481758793,"31":0.1570602930129571,"32":-0.10545896406331967,"33":0.007551416955095777,"34":0.23229651710641974,"35":-0.03174514276465672,"36":0.11419734712184625,"37":0.010222476169276887,"38":-0.06498089642018154,"39":0.001942282203639196,"40":0.09216916723944779,"41":0.14118444182602,"42":0.1009541413443728,"43":-0.04723384847185199,"44":-0.05958090245526175,"45":0.09449018082103336,"46":0.10775406522948157,"47":-0.15411078031526548,"48":0.29550639720090804,"49":-0.036074127135425724,"50":-0.09155662425466474,"51":-0.10498123412494063,"52":0.212152863827733,"53":0.05765907876879642,"54":-0.1499707776672544}},{"sx":1,"sy":1,"depth":55,"w":{"0":-0.20328965567503274,"1":-0.10269736088579783,"2":0.05094247185625251,"3":-0.09983586518917228,"4":-0.0621100029550763,"5":-0.22306264966295963,"6":0.19760687012372039,"7":0.17729339539934907,"8":0.07108425663681628,"9":-0.1344203595243862,"10":0.12978125221417758,"11":0.11943990964019487,"12":0.052889808004493534,"13":0.12317739469001994,"14":0.06733977507679918,"15":0.03140826290626386,"16":0.10461432633097807,"17":0.01592147935734011,"18":0.06631522746574396,"19":-0.1470552136736915,"20":0.1348386982890229,"21":0.02717451874270502,"22":-0.10369029338200803,"23":-0.24785293224467775,"24":0.11257865252382454,"25":0.322288394789716,"26":-0.15534318826815885,"27":-0.19315449529627365,"28":-0.04752797213030744,"29":-0.16637758508034098,"30":-0.05003831800778739,"31":-0.09794446101234763,"32":-0.1441472257768379,"33":0.0523692714475954,"34":-0.20603894670629833,"35":-0.09147385013907744,"36":-0.13472131210155336,"37":0.09138240136619259,"38":0.049412767535493486,"39":-0.11264240659866534,"40":0.03631326693637071,"41":0.322557719890681,"42":0.1597752070334025,"43":-0.024092754889205086,"44":0.20683697157410652,"45":-0.15885613504962548,"46":0.14203231851979978,"47":0.13913588399355017,"48":-0.12046283595091183,"49":-0.017002244100611248,"50":0.028029551913176003,"51":-0.0348348059491738,"52":-0.0005319309143226083,"53":-0.22334642492785808,"54":-0.1557812548890587}},{"sx":1,"sy":1,"depth":55,"w":{"0":0.10167641851840489,"1":-0.1664767173478554,"2":-0.18181724939829566,"3":0.08098312651294688,"4":0.1418545284048974,"5":-0.12454695994582934,"6":-0.05708642649916876,"7":0.040141601699212846,"8":0.21197036631108565,"9":0.12227459048722417,"10":-0.27781103915779076,"11":-0.14275725720136545,"12":-0.2121433234677378,"13":0.12225112986170861,"14":-0.19268256619757151,"15":-0.015845291820597785,"16":-0.0007141662025246067,"17":0.00292667528493654,"18":-0.037998872562134106,"19":0.08163141799655096,"20":0.0563393951833856,"21":0.012843570913883811,"22":-0.1389279628013851,"23":-0.22491047905978506,"24":-0.15719796537535044,"25":0.028365906362476514,"26":-0.17745984675613846,"27":-0.10399283408991286,"28":-0.13801769667283487,"29":-0.12890468214668327,"30":-0.06583553168042368,"31":-0.03907711207710074,"32":-0.14908921578780715,"33":-0.12568620040074868,"34":0.06728548413764879,"35":0.1772874907368033,"36":0.07887213803989986,"37":0.10228403262465084,"38":-0.15585451145529514,"39":0.05632740700723282,"40":-0.0506999483218054,"41":-0.26134033600470385,"42":-0.1271665233210203,"43":-0.012080527586262066,"44":0.10641641325232058,"45":-0.05796862348764352,"46":-0.00028606673047182313,"47":0.005845919759049451,"48":0.10597034966424597,"49":0.10233802084418321,"50":-0.04731783306633368,"51":-0.11100549773422876,"52":-0.312952483171861,"53":0.029043173971979246,"54":0.14374228742738965}},{"sx":1,"sy":1,"depth":55,"w":{"0":0.15184356852376601,"1":0.12225935652082978,"2":-0.02757186882009642,"3":-0.22691694081130437,"4":0.007553692367509322,"5":-0.19730652654359282,"6":-0.125777032204056,"7":-0.10554630800920185,"8":-0.1672557755844195,"9":0.0005255820517780526,"10":0.15583492014781494,"11":-0.05578289258522148,"12":-0.008226560790884636,"13":0.1849371235023105,"14":-0.0032586482933593067,"15":-0.06155946776165812,"16":-0.0868742543959469,"17":0.008058700217840617,"18":-0.16577073293309455,"19":-0.03970179232217656,"20":-0.01177387479643079,"21":-0.09945449493985274,"22":-0.17630316519805253,"23":0.02750576694661517,"24":-0.09685618190788652,"25":0.19463934372922137,"26":-0.06662241546665135,"27":-0.12815782146211246,"28":0.018577963045185823,"29":0.16884675575980698,"30":0.0560503319252988,"31":-0.12040737283829289,"32":-0.09953256174525299,"33":0.012936585868995475,"34":0.04663797762402652,"35":-0.1701482666272407,"36":-0.12116094837133,"37":0.06038655013073066,"38":0.22230663149464913,"39":0.01110342623695858,"40":0.10350815179658947,"41":0.26585340071681496,"42":0.2322920535418417,"43":0.12619003357023767,"44":-0.47415864741963404,"45":0.14416218584818574,"46":-0.014304067140590139,"47":0.25556764938760723,"48":0.0902234506191363,"49":0.0008073896472614158,"50":-0.1813243016495963,"51":0.0710272639940906,"52":-0.30154032643783396,"53":0.13380026347960086,"54":-0.0029519132462259186}},{"sx":1,"sy":1,"depth":55,"w":{"0":0.2747702958605392,"1":0.13496360825906065,"2":0.12467705442761459,"3":-0.07198225531518451,"4":-0.040533866215970604,"5":-0.021205050155702166,"6":-0.07814704295821998,"7":-0.09516457323201347,"8":0.11204481484906176,"9":-0.1010504436369257,"10":-0.036775010973618,"11":0.06479927437009088,"12":-0.10289984823279177,"13":0.15090656900257862,"14":-0.12641711021458316,"15":0.13040380627856427,"16":-0.4585209391092564,"17":-0.15581695485522104,"18":0.11619441447276523,"19":0.06597490373718459,"20":-0.016255211454529322,"21":0.019162918874970427,"22":-0.024157507102433508,"23":0.15533648285092538,"24":-0.014013718463354322,"25":-0.020402967222091405,"26":0.0651793375711265,"27":0.1356358542884736,"28":0.1641170229772296,"29":0.20810367031496066,"30":0.1464549256551614,"31":0.1530395290211521,"32":-0.18837603217999846,"33":0.1881320513555633,"34":0.04713153358809616,"35":0.1168657020648942,"36":0.09346401855109104,"37":0.17202600766881704,"38":-0.0947215402895285,"39":-0.008894112040895838,"40":0.13145617209453878,"41":-0.057818129145190786,"42":0.0373273679620141,"43":-0.02830584824475893,"44":0.14740840327852153,"45":-0.09408804300584248,"46":-0.011986695578721783,"47":0.0743216999381823,"48":0.012017034979525212,"49":0.0387702306232538,"50":0.18986555621242027,"51":-0.023838257894143136,"52":0.06339218314202849,"53":0.1427568664977512,"54":0.12638616239180608}},{"sx":1,"sy":1,"depth":55,"w":{"0":-0.38124272594281844,"1":0.020970921048377885,"2":0.18479011039680332,"3":0.1858278025510375,"4":0.09606473139429725,"5":0.11261379207731433,"6":-0.03259075693884788,"7":0.038197072271876194,"8":0.01121776447512114,"9":-0.06132669096452201,"10":-0.044733719678090714,"11":-0.18116589492428167,"12":-0.18338173983573341,"13":-0.25026919420161275,"14":-0.0019421137453779589,"15":0.06899255300363548,"16":-0.011629917680253702,"17":0.0580805040854036,"18":-0.10691683326125748,"19":0.005378590001978784,"20":0.05510012590363294,"21":-0.015409935879303782,"22":-0.0014480402852099757,"23":0.0018487377580266307,"24":-0.17896134479646048,"25":0.15745502474596798,"26":0.18727887545011557,"27":0.23428981060889975,"28":0.24525281649237254,"29":0.030472745800307784,"30":-0.05656269760020422,"31":0.07454766462498083,"32":0.05152104545262031,"33":0.04954423137888834,"34":-0.09776384600789902,"35":-0.06046225538660823,"36":0.06671378606814987,"37":-0.030906540768909918,"38":-0.03267353923473252,"39":-0.2577221361885785,"40":0.010552893859609192,"41":0.13657136009609097,"42":0.08150476274836008,"43":-0.062382760175992945,"44":-0.05272720791969749,"45":0.22140004911195532,"46":0.00951685151088454,"47":-0.22276338083420447,"48":-0.08147961268721315,"49":-0.09430969057072851,"50":-0.09711824538666217,"51":-0.11811630712851619,"52":0.07887992242390895,"53":0.22486378919176725,"54":0.3092708218699182}},{"sx":1,"sy":1,"depth":55,"w":{"0":-0.3182900234350679,"1":0.12829332131585933,"2":-0.14675978870635786,"3":-0.013254851231462212,"4":0.09280923203263483,"5":-0.15617002803797758,"6":0.37855522817158854,"7":0.13719937977058208,"8":-0.027074766959980165,"9":0.15843183662111474,"10":-0.18707630068294884,"11":0.16525699735170207,"12":-0.1538318857988057,"13":-0.08483777959070254,"14":0.060525858576261596,"15":-0.08668835104867968,"16":0.25832251755428914,"17":-0.11713332761788271,"18":0.10279558221413572,"19":-0.12139322737923701,"20":0.0028394552998972727,"21":0.04012749236329423,"22":0.09340451821942099,"23":0.19701061253419022,"24":-0.2608867872016064,"25":0.3633249419213169,"26":0.15911574237767867,"27":-0.056052622569892935,"28":0.10865860788776013,"29":0.2468521130428342,"30":-0.08364165586389265,"31":-0.11666283164528314,"32":-0.12015419597268945,"33":-0.1745578681800331,"34":-0.267631193729508,"35":0.16050392857484372,"36":-0.04958326505864661,"37":0.08916432222862401,"38":0.09353994879853847,"39":0.07895704589064774,"40":-0.017766389278805517,"41":0.14533513616249374,"42":-0.18503229825449596,"43":0.004800657586857807,"44":0.20642550496798137,"45":0.22250983569790925,"46":0.09050146942182638,"47":0.11445418042863623,"48":0.1412173261027085,"49":-0.07519775084240701,"50":0.17425064887828215,"51":0.07979725560903926,"52":0.020318112105810318,"53":0.009709993014344531,"54":0.05690324787243115}},{"sx":1,"sy":1,"depth":55,"w":{"0":-0.05657683800233784,"1":0.21683243233835076,"2":0.07037101788575036,"3":-0.08042376457289063,"4":0.0069218842742948756,"5":-0.337113446849939,"6":-0.21928295554233523,"7":0.23271192547162933,"8":-0.09424268377401258,"9":-0.07870206703849424,"10":0.17296328846240203,"11":0.04535226442147844,"12":0.12601118358790742,"13":0.029905709498226435,"14":0.05046683112364372,"15":-0.12610236028274405,"16":-0.11690313635012836,"17":0.054893127820177516,"18":-0.13497262342198887,"19":-0.12307349222524908,"20":-0.19086533136070397,"21":-0.029077102826098294,"22":-0.0636615905789281,"23":-0.14358457688922385,"24":-0.09503891185147136,"25":-0.1405905084768103,"26":-0.049014672261210306,"27":0.05911824236437934,"28":0.017691563168197425,"29":-0.12968674125954296,"30":0.13609667521471622,"31":-0.00039688870950960864,"32":0.01800584807298132,"33":-0.016143694373687446,"34":-0.054040997401705114,"35":-0.11102019274206278,"36":0.07290786736313845,"37":-0.014005396746104364,"38":0.22133234387403855,"39":-0.05274613204630774,"40":0.15088052527342963,"41":0.04159505595360506,"42":0.10058648001102227,"43":-0.04587781677892576,"44":-0.023484065964654684,"45":0.05840769030190705,"46":-0.4368933602155718,"47":-0.22585797223852894,"48":-0.10579435639724341,"49":0.13974241880803137,"50":0.052332802167076316,"51":-0.10030713591320213,"52":0.15883505298656406,"53":0.008011701438438943,"54":0.33271057530464476}},{"sx":1,"sy":1,"depth":55,"w":{"0":-0.24500746178110958,"1":0.1758057103888624,"2":-0.03265106808566665,"3":0.033249920854004834,"4":0.07973515690675922,"5":0.13872085490715516,"6":0.09593104240535498,"7":0.0903521140686365,"8":-0.020024421793235023,"9":-0.10606589987596539,"10":0.27007551157397897,"11":-0.20770167552910673,"12":-0.07740393721786192,"13":-0.004154635959767061,"14":0.07562164880442213,"15":0.052905016768080036,"16":-0.0960929724414882,"17":0.19594501086043456,"18":0.07684045776271675,"19":0.19235055489482583,"20":0.03576757470881647,"21":-0.13504146812053733,"22":0.07649548747934712,"23":0.118411390813152,"24":0.06350743207194698,"25":-0.3192148650516519,"26":-0.1338717238082018,"27":-0.12850524635877877,"28":-0.13977999450567255,"29":-0.0008077286075129439,"30":0.02276184188555901,"31":0.025837090979223445,"32":-0.05821871604049863,"33":-0.14663777448394208,"34":-0.11147034127571724,"35":-0.00858312888234479,"36":-0.07966011960961934,"37":-0.10437246746957102,"38":-0.09891399265665923,"39":0.11609210811823283,"40":0.04159572811595144,"41":0.05717604991649407,"42":0.2685482012285949,"43":0.013334561015947667,"44":0.09191050724090852,"45":-0.2503103604808334,"46":0.05349544856050441,"47":-0.043867108825075427,"48":-0.037836647023211385,"49":-0.09975533186720087,"50":-0.06996631224328126,"51":-0.050568702079835555,"52":-0.0005639537180739392,"53":-0.16483265108338954,"54":-0.31086625276442525}}],"biases":{"sx":1,"sy":1,"depth":50,"w":{"0":0.08820216532897039,"1":0.10210005686067275,"2":0.0938843816496277,"3":0.10076562845291173,"4":0.09715949769638409,"5":0.11660277650992043,"6":0.10872735011726738,"7":0.09695753960550925,"8":0.09632268259435209,"9":0.10578198531831806,"10":0.1005763690538119,"11":0.10385310243803796,"12":0.09700628571121771,"13":0.10480216705404315,"14":0.0977726827579561,"15":0.10493489431204585,"16":0.10620964709307054,"17":0.10029467433137004,"18":0.09470091903209024,"19":0.10326673613423287,"20":0.0890129162901717,"21":0.10338648376413287,"22":0.10980411478781159,"23":0.1028849638437635,"24":0.09461155232256385,"25":0.08489861994135023,"26":0.0921045560014353,"27":0.11952278245322813,"28":0.1055740450551971,"29":0.0997297316151851,"30":0.1015900272066598,"31":0.0945083508025013,"32":0.0943436319759992,"33":0.09925182151440783,"34":0.10434421050400264,"35":0.1053536886623442,"36":0.10736456366188218,"37":0.10424184112002591,"38":0.11141127788104323,"39":0.10071020573414953,"40":0.12191239734915332,"41":0.0966501288276321,"42":0.10485386115097506,"43":0.10363471033878029,"44":0.10525442291732415,"45":0.09879887188442266,"46":0.1062499742379863,"47":0.099247194612466,"48":0.0981193046212351,"49":0.1006793194284742}}},{"out_depth":50,"out_sx":1,"out_sy":1,"layer_type":"relu"},{"out_depth":50,"out_sx":1,"out_sy":1,"layer_type":"fc","num_inputs":50,"l1_decay_mul":0,"l2_decay_mul":1,"filters":[{"sx":1,"sy":1,"depth":50,"w":{"0":0.09860443137219094,"1":-0.10432160480505953,"2":0.015157075077622343,"3":-0.021502794503608265,"4":0.020835001309076333,"5":-0.05772866320093492,"6":-0.04156197840663707,"7":-0.04751939549703966,"8":-0.06975509865370366,"9":0.03633252841435608,"10":0.10773205360561008,"11":0.019247208316642787,"12":-0.15547349086206075,"13":0.09363109001770936,"14":0.16150699874381858,"15":-0.23462486916829767,"16":0.18901086212023216,"17":-0.1436980758195924,"18":0.008596435965562668,"19":0.200295561893328,"20":0.08807324263912629,"21":-0.1966809535431377,"22":-0.025854995511350027,"23":-0.08792160394142377,"24":-0.11389705997072692,"25":0.04439959704519926,"26":-0.3659901680917883,"27":0.023775408016895958,"28":0.05933516377741409,"29":0.07896670592242562,"30":0.11659932378873965,"31":-0.12782331135511107,"32":-0.09017499828173368,"33":0.09489124136610454,"34":-0.033308194831553575,"35":0.0729640160344414,"36":-0.0707307018556443,"37":0.15209675969625097,"38":-0.10748116196712693,"39":0.17252407171151962,"40":0.13885753855550254,"41":-0.043153387213692815,"42":-0.04252182209752431,"43":0.07485517001957039,"44":-0.0158320432196133,"45":-0.186204191644123,"46":0.011929717556036596,"47":-0.07659346028664178,"48":-0.16019574381612112,"49":0.19120917611533042}},{"sx":1,"sy":1,"depth":50,"w":{"0":0.12738699169863665,"1":0.14662764195075473,"2":0.08611335583696793,"3":-0.07849228651228171,"4":-0.19898472369586082,"5":-0.1388596194098892,"6":0.052782250358030275,"7":0.0740265439179361,"8":0.04691090809123338,"9":-0.06817395411247962,"10":-0.005246510634050398,"11":-0.1458996029895016,"12":0.05875804834367292,"13":-0.08330554947182563,"14":0.18113447424451357,"15":0.2856462445472576,"16":-0.04177827591318579,"17":-0.08209512702234908,"18":0.1767690869808653,"19":-0.017538339635336197,"20":0.30221626583855365,"21":0.10007283262488198,"22":-0.14910248748754995,"23":-0.04984573588363958,"24":-0.01827438514872115,"25":0.18031186314170608,"26":0.011724095852637796,"27":-0.08024644984805547,"28":-0.4149710424139441,"29":-0.0522607812888222,"30":0.06652968986110498,"31":0.043248603232220476,"32":0.05866648080402284,"33":-0.03287579372903954,"34":-0.31277529688710665,"35":-0.04363624125722731,"36":-0.013666467788699892,"37":-0.009929583437587968,"38":0.024049013204685287,"39":-0.08177645714360647,"40":-0.008744052517592709,"41":-0.1225023781041773,"42":0.051554624935363905,"43":-0.002481470661755022,"44":-0.08972232415951244,"45":-0.06458215483740268,"46":-0.10531509266419871,"47":-0.12100753766494414,"48":0.1350996807718808,"49":0.03007397218711573}},{"sx":1,"sy":1,"depth":50,"w":{"0":0.04646533248941547,"1":-0.13789415283563175,"2":-0.12102733383753099,"3":0.0677359114327565,"4":-0.06251089911153554,"5":0.35008481726457463,"6":0.04410407223153096,"7":0.020747999144096828,"8":0.2559124188167292,"9":0.08387747438120753,"10":0.0007443082742180205,"11":0.18234896179373278,"12":-0.06596335301302723,"13":-0.12065217696591475,"14":-0.2602853821597637,"15":0.01939782896027166,"16":0.09252495731491404,"17":-0.30919274151554565,"18":0.2392474712325524,"19":0.05058301151461399,"20":-0.1322560932619577,"21":-0.06726259549919336,"22":-0.08520006997243998,"23":0.2734345865325104,"24":-0.09628992661483093,"25":0.10904255881699813,"26":-0.03776619355259841,"27":0.07556994976476876,"28":-0.10328609463053813,"29":-0.17323544456672138,"30":-0.08049956953762802,"31":0.17224719055217913,"32":-0.0779171839083971,"33":-0.03728344591992712,"34":-0.3549823543243057,"35":0.1544338056159753,"36":-0.09862661258077281,"37":-0.12922059887337972,"38":-0.2522311509519886,"39":-0.1181603142430351,"40":0.060895293464081096,"41":-0.09049695292216628,"42":0.03455252940024056,"43":0.47739311905319287,"44":0.34906412838227957,"45":-0.03952915287900937,"46":-0.12144758195490712,"47":-0.05920439430756794,"48":0.10771989954266002,"49":0.07722230504410493}},{"sx":1,"sy":1,"depth":50,"w":{"0":0.051245651667355764,"1":-0.1978708148417119,"2":-0.2131337784046244,"3":-0.1796615353964531,"4":0.06746314217991153,"5":0.09000008046432881,"6":0.21110339047410853,"7":0.01888330920683484,"8":0.09268571043895756,"9":-0.17127259104243356,"10":-0.2409379119307785,"11":0.011182703225668986,"12":0.014979731025973874,"13":0.3201557170064604,"14":0.10704933259355343,"15":-0.25607392850686017,"16":0.013876954771689865,"17":-0.10565919449656021,"18":0.1499307377763434,"19":0.19280176193897497,"20":-0.19327943692402152,"21":-0.07093696290459083,"22":-0.12219175645171232,"23":0.05683960596778062,"24":-0.024522860296158296,"25":0.04491032250786777,"26":0.044118688167582965,"27":-0.045534073359750384,"28":-0.22746318936279647,"29":-0.14156914185911118,"30":0.49830940233473636,"31":0.08599343466576569,"32":-0.2534707938456882,"33":0.021912367988807763,"34":-0.1581640213710345,"35":-0.1861074618454596,"36":-0.17760606202635748,"37":-0.036754390169196044,"38":0.1646801062475963,"39":-0.04408363946731135,"40":0.07771582104308332,"41":-0.09101263088693376,"42":-0.10950871378756638,"43":0.13501949073953412,"44":-0.10211064739686558,"45":-0.1060966618775967,"46":-0.13616905598348253,"47":-0.08408903854615785,"48":-0.1735465057458992,"49":-0.10411238303120127}},{"sx":1,"sy":1,"depth":50,"w":{"0":0.2511650845440738,"1":0.16878277360938315,"2":0.13172466623739063,"3":-0.10283007213095612,"4":0.08728170175876113,"5":-0.2386148951114059,"6":0.06765595736442077,"7":-0.1896195967787104,"8":0.10619588988986066,"9":-0.29423100834277266,"10":0.18018608054394775,"11":-0.2669270850194306,"12":0.0774058618655046,"13":0.00664095319730091,"14":-0.014875911475254527,"15":-0.4891903284611396,"16":-0.04561361356614165,"17":0.08049737219843525,"18":0.012162079167108123,"19":0.007187778782289498,"20":0.038048258738160944,"21":-0.025103868163858137,"22":-0.19399485519555484,"23":0.15959720299779223,"24":0.14375068143622982,"25":-0.10825943754425002,"26":-0.17552866850389878,"27":-0.03151041282786917,"28":0.07493204472974907,"29":0.08502892258524342,"30":0.12436206522133683,"31":-0.06952600354640091,"32":0.06277224902903926,"33":0.23474931771332272,"34":0.01259943123029991,"35":0.03382827984695012,"36":0.08451930680710866,"37":0.12746016052402756,"38":0.12572086402088326,"39":-0.08545676528623763,"40":0.24430955757162934,"41":0.032459929710627194,"42":-0.016512901285063677,"43":-0.17375825984824878,"44":-0.04188909399425831,"45":0.0834881103566379,"46":-0.17102854056364572,"47":0.011040867409633651,"48":-0.29387070661730025,"49":-0.21175719011732708}},{"sx":1,"sy":1,"depth":50,"w":{"0":0.15048639066389405,"1":0.21425851738533844,"2":0.027376910461816947,"3":0.003595348223498879,"4":0.16502016008511677,"5":0.040423595827418696,"6":-0.01847522425836673,"7":0.35187601755396675,"8":-0.06856825868419676,"9":0.143328214148437,"10":-0.37671839982539096,"11":-0.026643814713849,"12":-0.1756072529615008,"13":-0.13484701819662137,"14":-0.2143613737320317,"15":0.16044354052765253,"16":-0.021925815801694892,"17":0.15322626586411087,"18":0.24573315635200413,"19":0.2648681923056617,"20":0.06608573591266588,"21":0.26521631942534407,"22":0.03844381341473523,"23":-0.07508416633446223,"24":-0.022512870162237967,"25":-0.3392027258783008,"26":-0.07457931420370158,"27":0.012946892182195155,"28":0.0432509655645411,"29":0.032275344295260765,"30":-0.02279316183997376,"31":0.21597798748804345,"32":-0.138605438073915,"33":0.1274476957436868,"34":0.10306532984008705,"35":0.15737450316403953,"36":0.2535972255092916,"37":0.1345353980391346,"38":-0.10221789620040601,"39":-0.07832526667646877,"40":0.14341751804204486,"41":-0.010091967200037742,"42":0.16177395559235663,"43":-0.06746244675850359,"44":-0.059362948606217665,"45":-0.06342319219074037,"46":0.07376012883688396,"47":0.10850452176682791,"48":0.10464724562979101,"49":0.041361148565589666}},{"sx":1,"sy":1,"depth":50,"w":{"0":0.1062121117316322,"1":0.18417498391512183,"2":-0.08653116235487104,"3":0.12387652408537775,"4":0.0630721244456147,"5":-0.2934383654992299,"6":-0.029629530359754505,"7":-0.14923000131122197,"8":-0.030217693728516886,"9":0.014707147610175069,"10":0.09044181721275028,"11":0.17050174373165092,"12":-0.11125701392135903,"13":0.23964001480423883,"14":-0.027640066225150466,"15":0.19799728293908866,"16":0.03629018963938239,"17":-0.11641867777310033,"18":0.07002528501391829,"19":0.08594407919095952,"20":0.09772131627081765,"21":-0.17198376796379528,"22":-0.023370524363742522,"23":0.14047992259993983,"24":0.12083077102938843,"25":-0.028710162344178378,"26":0.09551234641322355,"27":-0.06809055283982066,"28":-0.11685615892788126,"29":-0.07866136272004086,"30":0.3512493919489149,"31":-0.30775211574167477,"32":-0.09953668589894765,"33":-0.33029176518841885,"34":0.15294756192228104,"35":-0.09040899753708548,"36":0.11376451612924392,"37":-0.08181223114534397,"38":0.2232746529795339,"39":0.0771622513486556,"40":-0.07366613269767243,"41":-0.05890108721047625,"42":-0.2377702910656425,"43":0.11180249609271127,"44":-0.15037238022184674,"45":-0.18172777883274863,"46":-0.1403701881449539,"47":0.08302942914641001,"48":0.018822134908690336,"49":0.14025903909919754}},{"sx":1,"sy":1,"depth":50,"w":{"0":-0.12385722901783615,"1":-0.10577103858896719,"2":-0.030807658454148505,"3":0.010255277301363837,"4":-0.1893125189142603,"5":-0.09997210281953227,"6":-0.12257359020217035,"7":0.1737738332944204,"8":-0.04235561905159276,"9":0.2074485745983902,"10":-0.06690439025465844,"11":-0.03154731134738772,"12":0.1816947846005806,"13":-0.021504485574411203,"14":0.0540550710370488,"15":-0.06865238293854287,"16":-0.17985092695700694,"17":-0.11077515643602269,"18":-0.31498030060930654,"19":0.1749410973931501,"20":-0.20973984134258414,"21":0.2104607597604976,"22":0.035401930601822916,"23":0.14156770088993992,"24":-0.09563673722832831,"25":0.09941330905645804,"26":0.2032440970716882,"27":0.17175259014999208,"28":-0.0972929422824586,"29":0.08331351335889468,"30":-0.14147191837061507,"31":-0.07442512491601463,"32":-0.003662157257213903,"33":-0.14798644035866104,"34":0.12462953560696265,"35":0.028198507526376947,"36":0.13958385482454488,"37":0.15322126113674725,"38":0.05604649534223608,"39":0.1539732026271242,"40":-0.30148484906491285,"41":0.1993714197745642,"42":-0.01922055985521481,"43":0.1356979883671159,"44":0.30520324537446064,"45":-0.11892226662005993,"46":-0.19893330269435697,"47":0.03717462049166786,"48":-0.024713976596326882,"49":-0.31435017376259566}},{"sx":1,"sy":1,"depth":50,"w":{"0":-0.1587162627892078,"1":-0.11751827215181418,"2":-0.06744156880995371,"3":0.11152110236594173,"4":-0.3401636908086505,"5":-0.07485493411857681,"6":-0.04726207016292937,"7":0.06188290612349363,"8":-0.2236004317337789,"9":-0.2923080876851694,"10":-0.06954895488155664,"11":-0.010191994486347548,"12":-0.3377078023618348,"13":0.051780907626509394,"14":0.028348207101584495,"15":-0.11777325790184223,"16":0.1735374014801746,"17":0.2504604391724567,"18":0.024045388216916194,"19":0.04309860242225076,"20":-0.08723306089060684,"21":-0.10601416516408661,"22":0.1859867707025362,"23":-0.028079831061611854,"24":0.06268566446261788,"25":0.04155262364755436,"26":0.09184417167060564,"27":0.028959389604885432,"28":-0.12059389319522687,"29":0.1831285144606067,"30":0.10959617497111848,"31":0.216847783511663,"32":-0.16242542843527263,"33":0.11241774958696675,"34":0.036031146178444405,"35":-0.14642570428337628,"36":0.23005244566038296,"37":-0.04589266284136224,"38":-0.1439863601878487,"39":0.07784767144968342,"40":-0.1402052204015313,"41":0.03356217236243019,"42":0.1937317330335726,"43":0.0756407716289843,"44":0.0470870448874488,"45":-0.024182480288568457,"46":-0.040138615343041924,"47":-0.2571984417154828,"48":-0.16161004293890996,"49":-0.05682015901276681}},{"sx":1,"sy":1,"depth":50,"w":{"0":0.08283447976127263,"1":-0.032177501470526226,"2":-0.01231653460561985,"3":0.04842908362778287,"4":-0.048371389871548105,"5":-0.27592446035146984,"6":0.12956801096368992,"7":0.061473210829817986,"8":0.2197110988596572,"9":0.2101074523188731,"10":0.022684267270809612,"11":-0.15304230201873537,"12":0.13808827170706503,"13":0.1330734038664229,"14":-0.029959296995741666,"15":0.1649226396636532,"16":0.08218085063197356,"17":-0.25769463654502506,"18":0.1187108884500595,"19":0.11580929671032274,"20":-0.08240984102802788,"21":-0.09791989095626481,"22":0.10529938139813205,"23":0.03732307988630208,"24":-0.287913927989709,"25":-0.11256792925226715,"26":0.04476590976071021,"27":-0.0691568211430978,"28":0.00143908313684172,"29":0.1298083152887512,"30":0.005661357311244791,"31":-0.10984580004614039,"32":0.07394870711044492,"33":0.026448498574582407,"34":-0.019246813338060127,"35":0.015080967325215163,"36":-0.09110816658527443,"37":-0.11949896244054477,"38":0.2669622995658637,"39":-0.06403224548433165,"40":-0.03876221888487987,"41":0.16483498764421423,"42":0.3931590090231579,"43":0.23046112701005728,"44":0.0645111171758359,"45":-0.06454999609815727,"46":0.052587852972777634,"47":0.15232933105564256,"48":-0.0017129419596593964,"49":0.07203528363577677}},{"sx":1,"sy":1,"depth":50,"w":{"0":0.05889160677331954,"1":-0.19413071236667104,"2":0.06628682788830471,"3":0.057485375419565755,"4":-0.1853744773778483,"5":-0.04592596906847303,"6":0.0004346923196145705,"7":-0.22668808056662185,"8":-0.028170258014596015,"9":0.03797319832050138,"10":0.1656276347925993,"11":0.14902197575828605,"12":0.09841565916720318,"13":-0.14200373379578887,"14":0.14923925905234986,"15":-0.30765492692931756,"16":-0.05909857999629671,"17":-0.03396431562409891,"18":0.06501273958321406,"19":0.03259137117554137,"20":0.11254293491087707,"21":-0.02783659870987599,"22":0.02553362475762755,"23":0.06609277142427802,"24":0.36222078236904043,"25":0.10162582024666979,"26":-0.018135022040535173,"27":0.03799372517027697,"28":0.05334334822471396,"29":0.18937416575446786,"30":-0.061213589404231515,"31":0.00009094992142952269,"32":-0.093813150926159,"33":-0.1933180968785943,"34":-0.14673393069526217,"35":0.13248555165196046,"36":0.08484635097432268,"37":-0.06619751459572137,"38":0.1249105868055639,"39":-0.2932082841989549,"40":-0.16734667104315257,"41":-0.0364068214947646,"42":-0.02060462590365567,"43":-0.10227821621268987,"44":-0.07846390134127604,"45":-0.18359533731800037,"46":0.022291404342146784,"47":0.16945363223732265,"48":0.08021836551309298,"49":-0.07438009104089453}},{"sx":1,"sy":1,"depth":50,"w":{"0":0.21747650756676296,"1":-0.15043691548886864,"2":0.16036202641742486,"3":0.10242499072466217,"4":0.05364079798393942,"5":-0.20037199883260481,"6":0.028600513396284662,"7":0.02476394096305743,"8":0.11681291112842714,"9":0.060254718436742245,"10":-0.07711347257227825,"11":0.062011148218811894,"12":-0.06940093370345192,"13":0.09439642150127195,"14":0.20386770304642515,"15":-0.011967554711952877,"16":0.28707659057404894,"17":0.039639799036584815,"18":0.1268959637610302,"19":-0.0994369048045297,"20":0.05149178098645404,"21":-0.09292660834076247,"22":-0.16286137143257975,"23":-0.007086035962825462,"24":-0.03740249682828885,"25":0.17960246644359773,"26":-0.40471639484159244,"27":0.03608873129912057,"28":-0.027372369955526738,"29":-0.03802948326409739,"30":-0.0972729596681735,"31":0.3484022951229748,"32":0.026327680253985283,"33":-0.03601314702022297,"34":-0.003927015085009831,"35":-0.26312117600631735,"36":0.14983014760283647,"37":0.05223569906206636,"38":-0.003038569651746229,"39":-0.09770775088766076,"40":0.07909082769054149,"41":0.004656690623924863,"42":-0.084862203756689,"43":-0.26948092287186426,"44":-0.22784084823577447,"45":-0.1859152454651282,"46":0.08907865567425088,"47":-0.14511290349101447,"48":-0.13741340653085662,"49":-0.16258564000047818}},{"sx":1,"sy":1,"depth":50,"w":{"0":0.022076196857681273,"1":0.1328112067857542,"2":-0.03316244481224123,"3":-0.01200537729941188,"4":0.10035803000571061,"5":0.0891723840607929,"6":0.35943949980060425,"7":0.21656704037195473,"8":-0.030390795497433256,"9":0.20726087709665666,"10":-0.10564155016946548,"11":0.1509305155927606,"12":-0.12422929661970233,"13":0.26603661957627417,"14":-0.06667471555419595,"15":-0.18219457430461175,"16":-0.10145013537449642,"17":-0.0065466166724076425,"18":-0.07232476967017093,"19":0.1601512929452755,"20":0.15491878976213463,"21":-0.00921025751392373,"22":-0.004250743757921116,"23":-0.1566909444297333,"24":-0.04878375729800425,"25":0.0236847180786687,"26":0.12840104734452487,"27":0.0655441819728476,"28":-0.10215618017328681,"29":0.0960737838210391,"30":0.18340168902323628,"31":0.045409641950306674,"32":-0.23231387840122375,"33":-0.23093541219228275,"34":-0.1142505973979204,"35":-0.16987757788793365,"36":-0.09818344600555459,"37":0.12482321306452572,"38":0.3640976738351421,"39":-0.09497198057411979,"40":0.12579431135546668,"41":-0.06494591676423206,"42":0.00856660784474368,"43":-0.04867073319339026,"44":-0.1514660353514035,"45":0.1933154147737695,"46":0.1724423565341151,"47":-0.007366515159702478,"48":0.11830078751525275,"49":0.22138697186306094}},{"sx":1,"sy":1,"depth":50,"w":{"0":0.06895586837680912,"1":0.02205008833610323,"2":-0.0025255566115608115,"3":-0.023820027964369536,"4":0.07047562086213488,"5":-0.07531063666033457,"6":-0.13200648116127495,"7":-0.07242672052831026,"8":-0.13620198672022787,"9":0.010982760625902763,"10":0.17228280362039972,"11":-0.029778770355461753,"12":-0.028690384899641347,"13":0.1203171087294511,"14":0.027416475104110022,"15":0.018034057495623604,"16":-0.04359718012111282,"17":-0.2211405972926439,"18":-0.09722618150215936,"19":-0.030113557881198114,"20":0.162585326634363,"21":-0.12132044108188896,"22":-0.026574600372003807,"23":0.1482185899910342,"24":-0.16863531285890765,"25":0.13071677854733812,"26":0.058737420607049715,"27":-0.08562787688168876,"28":0.11829955923666266,"29":-0.05677480840386312,"30":0.0747448188231676,"31":0.18990691358219053,"32":-0.03306590985195854,"33":0.20195265480301514,"34":-0.060397052023509694,"35":0.0019553534584006724,"36":-0.10000697471590655,"37":0.19269677059730314,"38":-0.0038424064900667017,"39":-0.052060282415609595,"40":-0.11579384540291622,"41":-0.04085779339768191,"42":-0.0153323241433176,"43":-0.004768479780947463,"44":-0.04160989790075802,"45":0.15424252035807848,"46":-0.10071633827265085,"47":-0.0002885068214337925,"48":-0.08270390099630326,"49":-0.04904616374946266}},{"sx":1,"sy":1,"depth":50,"w":{"0":-0.23771789816551375,"1":0.11900812000883754,"2":0.08088401496204797,"3":0.09568312213474002,"4":-0.32191879843788523,"5":-0.047341062917094424,"6":0.1129254521240112,"7":0.0762072582047763,"8":0.06180998254758358,"9":-0.051026192865287,"10":0.019179389633286685,"11":0.19769452162988002,"12":0.23388742120750428,"13":0.14411423126486841,"14":0.11139716774082609,"15":0.09132029345447962,"16":-0.06870114411589241,"17":-0.08766200120391958,"18":-0.33161222572872745,"19":0.03971424493950303,"20":-0.050502390943388924,"21":-0.1869758963712489,"22":0.007467164922780975,"23":0.150143255436167,"24":-0.3378058718406576,"25":0.01995102549942393,"26":-0.07578900207418149,"27":0.004536110994235077,"28":-0.07408600218337082,"29":0.03233127562675732,"30":0.09597150019148555,"31":0.13004648224596038,"32":0.02458573912227079,"33":0.022601978441295616,"34":-0.26559216193572527,"35":-0.2502720442381623,"36":0.08477521719158654,"37":0.00978436700752925,"38":0.14929061524789947,"39":0.00711583055882139,"40":0.1700797858482122,"41":-0.1447570507962547,"42":0.04511720616721626,"43":-0.10196770928909203,"44":-0.28348704683248177,"45":-0.1349998922821667,"46":0.05338820485548458,"47":0.11143131746350639,"48":0.1662587975167426,"49":0.19498589903698627}},{"sx":1,"sy":1,"depth":50,"w":{"0":0.12780722067270253,"1":-0.19203472433497826,"2":-0.06131514371873624,"3":-0.06574772832728383,"4":0.06751571407331089,"5":0.05694896327188888,"6":-0.34321837481576517,"7":-0.13048827186723808,"8":0.12477260349133645,"9":-0.0265536218960399,"10":0.08176085068840043,"11":-0.0894061269020292,"12":0.0076185187290974165,"13":-0.013250799456309198,"14":-0.08602193281719113,"15":0.30891181373762855,"16":0.13110483718779972,"17":-0.17505244810661078,"18":0.009870981565862438,"19":-0.039313298653897696,"20":0.10546900362447012,"21":0.16656346883566656,"22":0.15956907003043302,"23":-0.035393554502603584,"24":-0.10532159776695288,"25":0.05554182404415939,"26":0.344107101102958,"27":0.14223114773205292,"28":-0.0267173760516129,"29":0.21231413743266384,"30":0.19760806685067625,"31":-0.11141871984791277,"32":0.10284629614397939,"33":0.1413785067916153,"34":0.06952658978002002,"35":0.2647770812676581,"36":-0.009384890059750538,"37":0.07280308531684562,"38":0.046324920864514195,"39":0.004933431196616733,"40":-0.07402592712250973,"41":0.2623030419435223,"42":-0.12675673333554477,"43":0.19724915384843802,"44":0.299600406828305,"45":0.06972757588353846,"46":-0.14696469393925682,"47":-0.10944056120919553,"48":0.1793750785802713,"49":0.18435368936359786}},{"sx":1,"sy":1,"depth":50,"w":{"0":0.11637736026853024,"1":-0.23278199318778556,"2":0.2050126036560027,"3":-0.1636715270209793,"4":-0.04149857445581382,"5":0.058114440862588,"6":0.1223869089945718,"7":0.07542137151767027,"8":0.17023994734510353,"9":0.28915164193853143,"10":0.0009859330876210509,"11":-0.07673490496961465,"12":-0.17591030994805948,"13":-0.21042030823188954,"14":0.09927683654145139,"15":0.1594259665676685,"16":0.04834045455698972,"17":0.030822882743921826,"18":0.16767654613568742,"19":0.12660511050409667,"20":0.3279181423515543,"21":0.16487539967554646,"22":0.12788723589939455,"23":0.007850805743904498,"24":0.08400341883886192,"25":0.25897968555570466,"26":0.050917062361555576,"27":0.07015360261443418,"28":0.05230957179333899,"29":0.10680895668378894,"30":0.05607951974811387,"31":-0.06491181268401941,"32":0.07265032517486476,"33":0.1838384653390828,"34":-0.08493020784255811,"35":-0.0641935869611111,"36":0.09856098295848871,"37":-0.17040154652491582,"38":0.26532637385063135,"39":-0.17703063302802258,"40":-0.055485270656636894,"41":-0.025594502737793134,"42":-0.08903809199738098,"43":-0.09575876142047035,"44":-0.1801556854991815,"45":-0.09710693616882035,"46":0.016027374340496926,"47":-0.052817976095711386,"48":0.08044070248274228,"49":-0.12180308400997751}},{"sx":1,"sy":1,"depth":50,"w":{"0":0.11242045415265153,"1":-0.05069051958584108,"2":0.13335423709464064,"3":-0.004065995080612051,"4":-0.15642237756708438,"5":0.16104518530799844,"6":0.23205705100499358,"7":0.13653892433127335,"8":0.14383504709635136,"9":-0.04442038453291799,"10":-0.2960610450550503,"11":0.2798423385035634,"12":-0.020448302964182406,"13":-0.3288763481486826,"14":-0.33981805758727457,"15":-0.04350927563151435,"16":-0.046181433886174315,"17":-0.08748084415467404,"18":0.04797377915788646,"19":0.04864554503557096,"20":0.14512902281769585,"21":-0.00606697376555132,"22":-0.11236773880121238,"23":-0.1455005850507533,"24":-0.04996988127706951,"25":0.15285802435956403,"26":-0.039479299340475074,"27":-0.03436478216160121,"28":0.2198897109661586,"29":-0.017705286700915573,"30":0.14534107463101195,"31":0.08544393292759947,"32":0.02165647047602565,"33":-0.042420931507611545,"34":-0.03103382135088221,"35":0.05224620438402666,"36":-0.13059723185741753,"37":-0.10679935892172206,"38":0.12963104777268608,"39":-0.05665527027788727,"40":0.13759332961384596,"41":0.15184265267187005,"42":0.15193807145116744,"43":0.06650448361757297,"44":-0.31758394528491846,"45":-0.010264032682817142,"46":-0.14071157614302754,"47":-0.09305840409528505,"48":0.11350198045814787,"49":-0.17194011232263895}},{"sx":1,"sy":1,"depth":50,"w":{"0":0.07643798501207716,"1":-0.24064944501842833,"2":0.07331203411165171,"3":0.12841431222285235,"4":-0.01674083096485914,"5":-0.07835484174421516,"6":0.15463660458711592,"7":-0.022736457424078205,"8":-0.15993610359269042,"9":0.12375816584122626,"10":0.14574985574386323,"11":-0.1056967049726985,"12":0.024997537165018038,"13":0.01468239092625327,"14":-0.09690161818774963,"15":0.16896490742818543,"16":-0.027887241249440933,"17":-0.03189925068075624,"18":-0.05385766256612844,"19":0.03625879417794637,"20":0.1724102478131363,"21":0.09407159120745563,"22":0.08927836574862523,"23":-0.2219873687534446,"24":-0.06971251555384786,"25":0.02252695191828889,"26":0.13441399402308785,"27":0.0239531377472884,"28":-0.008155801509251957,"29":0.05993754811561477,"30":0.10490429597502686,"31":-0.1723179962049909,"32":-0.2531995270775328,"33":0.2484291989850304,"34":0.0025750804739912638,"35":0.12578000346093424,"36":-0.24729867693863145,"37":0.31831348961275824,"38":0.07694130799414198,"39":0.004961004339295945,"40":0.17519817647139796,"41":0.07859884558323961,"42":-0.0051853455040736865,"43":-0.16433758706218712,"44":-0.10544457683767207,"45":0.00518392661200976,"46":-0.23886856786285038,"47":-0.07258724407401716,"48":-0.02609952259572695,"49":0.14610625199239538}},{"sx":1,"sy":1,"depth":50,"w":{"0":-0.1598076672433551,"1":-0.23091351820566225,"2":0.1482261370324287,"3":0.012592047795047672,"4":-0.16934425986912127,"5":-0.11648852540201772,"6":-0.09803090631579865,"7":0.17753428917096206,"8":-0.06955956857402466,"9":-0.08990029151936256,"10":0.06638709206166767,"11":0.11290447673081283,"12":-0.1419722634065121,"13":0.124733018949886,"14":0.24631960528945263,"15":-0.11096021807637305,"16":-0.1011847187939919,"17":0.19647421008432173,"18":0.022066461523493418,"19":-0.13266895677373325,"20":-0.1103403753954216,"21":-0.11328276056174384,"22":0.016354307505925137,"23":0.2414598572526383,"24":0.16617196488748676,"25":-0.19741221353280672,"26":-0.13081901922106595,"27":-0.027880188399128418,"28":0.0473729313606858,"29":0.3161673960112306,"30":0.1661916437523475,"31":0.12061968856906959,"32":-0.15286487985691602,"33":-0.03930360325812462,